digraph Tree {
node [shape=box, style="filled", color="black", fontname="helvetica"] ;
edge [fontname="helvetica"] ;
0 [label="LAPSED_DAYS <= 38.5\ngini = 0.364\nsamples = 966618\nvalue = [231295, 735323]", fillcolor="#77bced"] ;
1 [label="gini = 0.0\nsamples = 189946\nvalue = [189946, 0]", fillcolor="#e58139"] ;
0 -> 1 [labeldistance=2.5, labelangle=45, headlabel="True"] ;
2 [label="TOTAL_PRODUCT <= 180.5\ngini = 0.101\nsamples = 776672\nvalue = [41349, 735323]", fillcolor="#44a3e6"] ;
0 -> 2 [labeldistance=2.5, labelangle=-45, headlabel="False"] ;
3 [label="LAST_VISIT_DATE <= 40151.5\ngini = 0.479\nsamples = 104141\nvalue = [41349, 62792]", fillcolor="#bbdef6"] ;
2 -> 3 ;
4 [label="gini = 0.0\nsamples = 62792\nvalue = [0, 62792]", fillcolor="#399de5"] ;
3 -> 4 ;
5 [label="gini = 0.0\nsamples = 41349\nvalue = [41349, 0]", fillcolor="#e58139"] ;
3 -> 5 ;
6 [label="gini = 0.0\nsamples = 672531\nvalue = [0, 672531]", fillcolor="#399de5"] ;
2 -> 6 ;
}