digraph Tree {
node [shape=box, style="filled", color="black", fontname="helvetica"] ;
edge [fontname="helvetica"] ;
0 [label="TOTAL <= 28182.5\ngini = 0.364\nsamples = 966618\nvalue = [231295, 735323]", fillcolor="#77bced"] ;
1 [label="TOTAL <= 3.5\ngini = 0.336\nsamples = 294087\nvalue = [231295, 62792]", fillcolor="#eca36f"] ;
0 -> 1 [labeldistance=2.5, labelangle=45, headlabel="True"] ;
2 [label="TOTAL <= 1.5\ngini = 0.484\nsamples = 433\nvalue = [178, 255]", fillcolor="#c3e1f7"] ;
1 -> 2 ;
3 [label="TM_VISIT <= 0.5\ngini = 0.48\nsamples = 5\nvalue = [3, 2]", fillcolor="#f6d5bd"] ;
2 -> 3 ;
4 [label="gini = 0.0\nsamples = 3\nvalue = [3, 0]", fillcolor="#e58139"] ;
3 -> 4 ;
5 [label="gini = 0.0\nsamples = 2\nvalue = [0, 2]", fillcolor="#399de5"] ;
3 -> 5 ;
6 [label="TOTAL <= 2.5\ngini = 0.483\nsamples = 428\nvalue = [175, 253]", fillcolor="#c2e1f7"] ;
2 -> 6 ;
7 [label="CFH_VISIT <= 0.5\ngini = 0.484\nsamples = 427\nvalue = [175, 252]", fillcolor="#c2e1f7"] ;
6 -> 7 ;
8 [label="TM_VISIT <= 0.5\ngini = 0.48\nsamples = 322\nvalue = [129, 193]", fillcolor="#bddff6"] ;
7 -> 8 ;
9 [label="gini = 0.471\nsamples = 153\nvalue = [58, 95]", fillcolor="#b2d9f5"] ;
8 -> 9 ;
10 [label="gini = 0.487\nsamples = 169\nvalue = [71, 98]", fillcolor="#c8e4f8"] ;
8 -> 10 ;
11 [label="TM_VISIT <= 0.5\ngini = 0.492\nsamples = 105\nvalue = [46, 59]", fillcolor="#d3e9f9"] ;
7 -> 11 ;
12 [label="gini = 0.495\nsamples = 31\nvalue = [14, 17]", fillcolor="#dceefa"] ;
11 -> 12 ;
13 [label="gini = 0.491\nsamples = 74\nvalue = [32, 42]", fillcolor="#d0e8f9"] ;
11 -> 13 ;
14 [label="gini = 0.0\nsamples = 1\nvalue = [0, 1]", fillcolor="#399de5"] ;
6 -> 14 ;
15 [label="TOTAL <= 28082.5\ngini = 0.335\nsamples = 293654\nvalue = [231117, 62537]", fillcolor="#eca36f"] ;
1 -> 15 ;
16 [label="TOTAL <= 28076.5\ngini = 0.336\nsamples = 292944\nvalue = [230449, 62495]", fillcolor="#eca36f"] ;
15 -> 16 ;
17 [label="TOTAL <= 27972.5\ngini = 0.335\nsamples = 292102\nvalue = [230042, 62060]", fillcolor="#eca36e"] ;
16 -> 17 ;
18 [label="TOTAL <= 27966.5\ngini = 0.335\nsamples = 291303\nvalue = [229290, 62013]", fillcolor="#eca36f"] ;
17 -> 18 ;
19 [label="TOTAL <= 27850.5\ngini = 0.335\nsamples = 290125\nvalue = [228469, 61656]", fillcolor="#eca36e"] ;
18 -> 19 ;
20 [label="TOTAL <= 27840.5\ngini = 0.335\nsamples = 289349\nvalue = [227757, 61592]", fillcolor="#eca36f"] ;
19 -> 20 ;
21 [label="TOTAL <= 27725.5\ngini = 0.335\nsamples = 289035\nvalue = [227604, 61431]", fillcolor="#eca36e"] ;
20 -> 21 ;
22 [label="TOTAL <= 27721.5\ngini = 0.335\nsamples = 288241\nvalue = [226860, 61381]", fillcolor="#eca36f"] ;
21 -> 22 ;
23 [label="TOTAL <= 27602.5\ngini = 0.335\nsamples = 287682\nvalue = [226496, 61186]", fillcolor="#eca36e"] ;
22 -> 23 ;
24 [label="TOTAL <= 27596.5\ngini = 0.335\nsamples = 286904\nvalue = [225780, 61124]", fillcolor="#eca36f"] ;
23 -> 24 ;
25 [label="TOTAL <= 27473.5\ngini = 0.335\nsamples = 286508\nvalue = [225580, 60928]", fillcolor="#eca36e"] ;
24 -> 25 ;
26 [label="TOTAL <= 27468.5\ngini = 0.335\nsamples = 285703\nvalue = [224835, 60868]", fillcolor="#eca36f"] ;
25 -> 26 ;
27 [label="TOTAL <= 27358.5\ngini = 0.335\nsamples = 285079\nvalue = [224433, 60646]", fillcolor="#eca36f"] ;
26 -> 27 ;
28 [label="TOTAL <= 27350.5\ngini = 0.335\nsamples = 284266\nvalue = [223689, 60577]", fillcolor="#eca36f"] ;
27 -> 28 ;
29 [label="TOTAL <= 27237.5\ngini = 0.335\nsamples = 283937\nvalue = [223524, 60413]", fillcolor="#eca36f"] ;
28 -> 29 ;
30 [label="TOTAL <= 27231.5\ngini = 0.335\nsamples = 283137\nvalue = [222780, 60357]", fillcolor="#eca36f"] ;
29 -> 30 ;
31 [label="TOTAL <= 27102.5\ngini = 0.335\nsamples = 282574\nvalue = [222442, 60132]", fillcolor="#eca36f"] ;
30 -> 31 ;
32 [label="TOTAL <= 27093.5\ngini = 0.335\nsamples = 281783\nvalue = [221708, 60075]", fillcolor="#eca36f"] ;
31 -> 32 ;
33 [label="TOTAL <= 26960.5\ngini = 0.335\nsamples = 281382\nvalue = [221525, 59857]", fillcolor="#eca36f"] ;
32 -> 33 ;
34 [label="TOTAL <= 26814.5\ngini = 0.335\nsamples = 280492\nvalue = [220690, 59802]", fillcolor="#eca36f"] ;
33 -> 34 ;
35 [label="TOTAL <= 26693.5\ngini = 0.335\nsamples = 277921\nvalue = [218898, 59023]", fillcolor="#eca36e"] ;
34 -> 35 ;
36 [label="TOTAL <= 26686.5\ngini = 0.335\nsamples = 277035\nvalue = [218087, 58948]", fillcolor="#eca36f"] ;
35 -> 36 ;
37 [label="TOTAL <= 26553.5\ngini = 0.335\nsamples = 276463\nvalue = [217718, 58745]", fillcolor="#eca36e"] ;
36 -> 37 ;
38 [label="TOTAL <= 26545.5\ngini = 0.335\nsamples = 275545\nvalue = [216858, 58687]", fillcolor="#eca36f"] ;
37 -> 38 ;
39 [label="TOTAL <= 26412.5\ngini = 0.335\nsamples = 275225\nvalue = [216720, 58505]", fillcolor="#eca36e"] ;
38 -> 39 ;
40 [label="TOTAL <= 26406.5\ngini = 0.335\nsamples = 274282\nvalue = [215846, 58436]", fillcolor="#eca36f"] ;
39 -> 40 ;
41 [label="TOTAL <= 26273.5\ngini = 0.335\nsamples = 273853\nvalue = [215589, 58264]", fillcolor="#eca36f"] ;
40 -> 41 ;
42 [label="TOTAL <= 26266.5\ngini = 0.335\nsamples = 272929\nvalue = [214752, 58177]", fillcolor="#eca36f"] ;
41 -> 42 ;
43 [label="TOTAL <= 26119.5\ngini = 0.335\nsamples = 272477\nvalue = [214546, 57931]", fillcolor="#eca36e"] ;
42 -> 43 ;
44 [label="TOTAL <= 26110.5\ngini = 0.335\nsamples = 271483\nvalue = [213634, 57849]", fillcolor="#eca36f"] ;
43 -> 44 ;
45 [label="TOTAL <= 25967.5\ngini = 0.335\nsamples = 270696\nvalue = [213120, 57576]", fillcolor="#eca36e"] ;
44 -> 45 ;
46 [label="TOTAL <= 25960.5\ngini = 0.335\nsamples = 269688\nvalue = [212195, 57493]", fillcolor="#eca36f"] ;
45 -> 46 ;
47 [label="TOTAL <= 25815.5\ngini = 0.335\nsamples = 269389\nvalue = [212054, 57335]", fillcolor="#eca36f"] ;
46 -> 47 ;
48 [label="TOTAL <= 25807.5\ngini = 0.336\nsamples = 268393\nvalue = [211143, 57250]", fillcolor="#eca36f"] ;
47 -> 48 ;
49 [label="TOTAL <= 25660.5\ngini = 0.335\nsamples = 267901\nvalue = [210851, 57050]", fillcolor="#eca36f"] ;
48 -> 49 ;
50 [label="TOTAL <= 25653.5\ngini = 0.336\nsamples = 266887\nvalue = [209936, 56951]", fillcolor="#eca36f"] ;
49 -> 50 ;
51 [label="TOTAL <= 25492.5\ngini = 0.335\nsamples = 266621\nvalue = [209814, 56807]", fillcolor="#eca36f"] ;
50 -> 51 ;
52 [label="TOTAL <= 25323.5\ngini = 0.336\nsamples = 265665\nvalue = [208947, 56718]", fillcolor="#eca36f"] ;
51 -> 52 ;
53 [label="TOTAL <= 25167.5\ngini = 0.335\nsamples = 263128\nvalue = [207205, 55923]", fillcolor="#eca36e"] ;
52 -> 53 ;
54 [label="TOTAL <= 23760.5\ngini = 0.335\nsamples = 262090\nvalue = [206258, 55832]", fillcolor="#eca36f"] ;
53 -> 54 ;
55 [label="TOTAL <= 23753.5\ngini = 0.337\nsamples = 248505\nvalue = [195264, 53241]", fillcolor="#eca36f"] ;
54 -> 55 ;
56 [label="TOTAL <= 23576.5\ngini = 0.336\nsamples = 247313\nvalue = [194518, 52795]", fillcolor="#eca36f"] ;
55 -> 56 ;
57 [label="TOTAL <= 23568.5\ngini = 0.336\nsamples = 246074\nvalue = [193424, 52650]", fillcolor="#eca36f"] ;
56 -> 57 ;
58 [label="TOTAL <= 23359.5\ngini = 0.335\nsamples = 245501\nvalue = [193202, 52299]", fillcolor="#eca36f"] ;
57 -> 58 ;
59 [label="TOTAL <= 23349.5\ngini = 0.336\nsamples = 244232\nvalue = [192045, 52187]", fillcolor="#eca36f"] ;
58 -> 59 ;
60 [label="TOTAL <= 23152.5\ngini = 0.336\nsamples = 243668\nvalue = [191702, 51966]", fillcolor="#eca36f"] ;
59 -> 60 ;
61 [label="TOTAL <= 23143.5\ngini = 0.336\nsamples = 242345\nvalue = [190529, 51816]", fillcolor="#eca36f"] ;
60 -> 61 ;
62 [label="TOTAL <= 22932.5\ngini = 0.335\nsamples = 242010\nvalue = [190415, 51595]", fillcolor="#eca36f"] ;
61 -> 62 ;
63 [label="TOTAL <= 22926.5\ngini = 0.336\nsamples = 240648\nvalue = [189195, 51453]", fillcolor="#eca36f"] ;
62 -> 63 ;
64 [label="TOTAL <= 22729.5\ngini = 0.336\nsamples = 240182\nvalue = [188923, 51259]", fillcolor="#eca36f"] ;
63 -> 64 ;
65 [label="TOTAL <= 22721.5\ngini = 0.336\nsamples = 238763\nvalue = [187669, 51094]", fillcolor="#eca36f"] ;
64 -> 65 ;
66 [label="TOTAL <= 22519.5\ngini = 0.335\nsamples = 238253\nvalue = [187468, 50785]", fillcolor="#eca36f"] ;
65 -> 66 ;
67 [label="TOTAL <= 22513.5\ngini = 0.336\nsamples = 236881\nvalue = [186259, 50622]", fillcolor="#eca36f"] ;
66 -> 67 ;
68 [label="TOTAL <= 22311.5\ngini = 0.336\nsamples = 236297\nvalue = [185914, 50383]", fillcolor="#eca36f"] ;
67 -> 68 ;
69 [label="TOTAL <= 22304.5\ngini = 0.336\nsamples = 234835\nvalue = [184604, 50231]", fillcolor="#eca36f"] ;
68 -> 69 ;
70 [label="TOTAL <= 22079.5\ngini = 0.336\nsamples = 234524\nvalue = [184484, 50040]", fillcolor="#eca36f"] ;
69 -> 70 ;
71 [label="TOTAL <= 22073.5\ngini = 0.336\nsamples = 233101\nvalue = [183228, 49873]", fillcolor="#eca36f"] ;
70 -> 71 ;
72 [label="TOTAL <= 21854.5\ngini = 0.336\nsamples = 232669\nvalue = [182985, 49684]", fillcolor="#eca36f"] ;
71 -> 72 ;
73 [label="TOTAL <= 21849.5\ngini = 0.337\nsamples = 231205\nvalue = [181675, 49530]", fillcolor="#eca36f"] ;
72 -> 73 ;
74 [label="TOTAL <= 21623.5\ngini = 0.336\nsamples = 230960\nvalue = [181576, 49384]", fillcolor="#eca36f"] ;
73 -> 74 ;
75 [label="TOTAL <= 21392.5\ngini = 0.337\nsamples = 229578\nvalue = [180356, 49222]", fillcolor="#eca36f"] ;
74 -> 75 ;
76 [label="TOTAL <= 21162.5\ngini = 0.335\nsamples = 225801\nvalue = [177719, 48082]", fillcolor="#eca36f"] ;
75 -> 76 ;
77 [label="TOTAL <= 21159.5\ngini = 0.336\nsamples = 224156\nvalue = [176273, 47883]", fillcolor="#eca36f"] ;
76 -> 77 ;
78 [label="TOTAL <= 20914.5\ngini = 0.336\nsamples = 223406\nvalue = [175771, 47635]", fillcolor="#eca36f"] ;
77 -> 78 ;
79 [label="TOTAL <= 20907.5\ngini = 0.336\nsamples = 221796\nvalue = [174355, 47441]", fillcolor="#eca36f"] ;
78 -> 79 ;
80 [label="TOTAL <= 20668.5\ngini = 0.336\nsamples = 221468\nvalue = [174215, 47253]", fillcolor="#eca36f"] ;
79 -> 80 ;
81 [label="TOTAL <= 20397.5\ngini = 0.337\nsamples = 219985\nvalue = [172889, 47096]", fillcolor="#eca36f"] ;
80 -> 81 ;
82 [label="TOTAL <= 20145.5\ngini = 0.335\nsamples = 216842\nvalue = [170641, 46201]", fillcolor="#eca36f"] ;
81 -> 82 ;
83 [label="TOTAL <= 20138.5\ngini = 0.336\nsamples = 215121\nvalue = [169108, 46013]", fillcolor="#eca36f"] ;
82 -> 83 ;
84 [label="TOTAL <= 19893.5\ngini = 0.336\nsamples = 214599\nvalue = [168823, 45776]", fillcolor="#eca36f"] ;
83 -> 84 ;
85 [label="TOTAL <= 19884.5\ngini = 0.336\nsamples = 212781\nvalue = [167244, 45537]", fillcolor="#eca36f"] ;
84 -> 85 ;
86 [label="TOTAL <= 19613.5\ngini = 0.336\nsamples = 212430\nvalue = [167098, 45332]", fillcolor="#eca36f"] ;
85 -> 86 ;
87 [label="TOTAL <= 19607.5\ngini = 0.337\nsamples = 210644\nvalue = [165532, 45112]", fillcolor="#eca36f"] ;
86 -> 87 ;
88 [label="TOTAL <= 19324.5\ngini = 0.336\nsamples = 210095\nvalue = [165225, 44870]", fillcolor="#eca36f"] ;
87 -> 88 ;
89 [label="TOTAL <= 19318.5\ngini = 0.337\nsamples = 208269\nvalue = [163617, 44652]", fillcolor="#eca36f"] ;
88 -> 89 ;
90 [label="TOTAL <= 19039.5\ngini = 0.336\nsamples = 207970\nvalue = [163489, 44481]", fillcolor="#eca36f"] ;
89 -> 90 ;
91 [label="TOTAL <= 19033.5\ngini = 0.337\nsamples = 206006\nvalue = [161785, 44221]", fillcolor="#eca36f"] ;
90 -> 91 ;
92 [label="TOTAL <= 18738.5\ngini = 0.336\nsamples = 204913\nvalue = [161080, 43833]", fillcolor="#eca36f"] ;
91 -> 92 ;
93 [label="TOTAL <= 18733.5\ngini = 0.337\nsamples = 202871\nvalue = [159289, 43582]", fillcolor="#eca36f"] ;
92 -> 93 ;
94 [label="TOTAL <= 18456.5\ngini = 0.336\nsamples = 202077\nvalue = [158964, 43113]", fillcolor="#eca36f"] ;
93 -> 94 ;
95 [label="TOTAL <= 18450.5\ngini = 0.337\nsamples = 200156\nvalue = [157298, 42858]", fillcolor="#eca36f"] ;
94 -> 95 ;
96 [label="TOTAL <= 18155.5\ngini = 0.336\nsamples = 199599\nvalue = [156955, 42644]", fillcolor="#eca36f"] ;
95 -> 96 ;
97 [label="TOTAL <= 18148.5\ngini = 0.337\nsamples = 197471\nvalue = [155116, 42355]", fillcolor="#eca36f"] ;
96 -> 97 ;
98 [label="TOTAL <= 17862.5\ngini = 0.336\nsamples = 197090\nvalue = [154956, 42134]", fillcolor="#eca36f"] ;
97 -> 98 ;
99 [label="TOTAL <= 17856.5\ngini = 0.337\nsamples = 194980\nvalue = [153109, 41871]", fillcolor="#eca36f"] ;
98 -> 99 ;
100 [label="TOTAL <= 17566.5\ngini = 0.337\nsamples = 194557\nvalue = [152888, 41669]", fillcolor="#eca36f"] ;
99 -> 100 ;
101 [label="TOTAL <= 17555.5\ngini = 0.338\nsamples = 192561\nvalue = [151163, 41398]", fillcolor="#eca46f"] ;
100 -> 101 ;
102 [label="TOTAL <= 17228.5\ngini = 0.336\nsamples = 191542\nvalue = [150691, 40851]", fillcolor="#eca36f"] ;
101 -> 102 ;
103 [label="TOTAL <= 17222.5\ngini = 0.336\nsamples = 189292\nvalue = [148776, 40516]", fillcolor="#eca36f"] ;
102 -> 103 ;
104 [label="TOTAL <= 16914.5\ngini = 0.336\nsamples = 188705\nvalue = [148430, 40275]", fillcolor="#eca36f"] ;
103 -> 104 ;
105 [label="TOTAL <= 16909.5\ngini = 0.337\nsamples = 186260\nvalue = [146352, 39908]", fillcolor="#eca36f"] ;
104 -> 105 ;
106 [label="TOTAL <= 16598.5\ngini = 0.336\nsamples = 185986\nvalue = [146244, 39742]", fillcolor="#eca36f"] ;
105 -> 106 ;
107 [label="TOTAL <= 16591.5\ngini = 0.337\nsamples = 183599\nvalue = [144206, 39393]", fillcolor="#eca36f"] ;
106 -> 107 ;
108 [label="TOTAL <= 16257.5\ngini = 0.336\nsamples = 182938\nvalue = [143890, 39048]", fillcolor="#eca36f"] ;
107 -> 108 ;
109 [label="TOTAL <= 16253.5\ngini = 0.337\nsamples = 180411\nvalue = [141739, 38672]", fillcolor="#eca36f"] ;
108 -> 109 ;
110 [label="TOTAL <= 15895.5\ngini = 0.336\nsamples = 180157\nvalue = [141640, 38517]", fillcolor="#eca36f"] ;
109 -> 110 ;
111 [label="TOTAL <= 15892.5\ngini = 0.337\nsamples = 177521\nvalue = [139392, 38129]", fillcolor="#eca36f"] ;
110 -> 111 ;
112 [label="TOTAL <= 15590.5\ngini = 0.336\nsamples = 176399\nvalue = [138711, 37688]", fillcolor="#eca36f"] ;
111 -> 112 ;
113 [label="TOTAL <= 15545.5\ngini = 0.337\nsamples = 174063\nvalue = [136684, 37379]", fillcolor="#eca36f"] ;
112 -> 113 ;
114 [label="TOTAL <= 14120.5\ngini = 0.335\nsamples = 172774\nvalue = [136049, 36725]", fillcolor="#eca36e"] ;
113 -> 114 ;
115 [label="TOTAL <= 14114.5\ngini = 0.337\nsamples = 159885\nvalue = [125572, 34313]", fillcolor="#eca36f"] ;
114 -> 115 ;
116 [label="TOTAL <= 12925.5\ngini = 0.335\nsamples = 159067\nvalue = [125269, 33798]", fillcolor="#eca36e"] ;
115 -> 116 ;
117 [label="TOTAL <= 12921.5\ngini = 0.337\nsamples = 148623\nvalue = [116685, 31938]", fillcolor="#eca36f"] ;
116 -> 117 ;
118 [label="TOTAL <= 12151.5\ngini = 0.336\nsamples = 148131\nvalue = [116430, 31701]", fillcolor="#eca36f"] ;
117 -> 118 ;
119 [label="TOTAL <= 12095.5\ngini = 0.338\nsamples = 141514\nvalue = [110998, 30516]", fillcolor="#eca46f"] ;
118 -> 119 ;
120 [label="TOTAL <= 12066.5\ngini = 0.335\nsamples = 139662\nvalue = [109890, 29772]", fillcolor="#eca36f"] ;
119 -> 120 ;
121 [label="TOTAL <= 12059.5\ngini = 0.336\nsamples = 139568\nvalue = [109796, 29772]", fillcolor="#eca36f"] ;
120 -> 121 ;
122 [label="TOTAL <= 12021.5\ngini = 0.335\nsamples = 139348\nvalue = [109653, 29695]", fillcolor="#eca36f"] ;
121 -> 122 ;
123 [label="TOTAL <= 11.5\ngini = 0.336\nsamples = 139240\nvalue = [109547, 29693]", fillcolor="#eca36f"] ;
122 -> 123 ;
124 [label="TOTAL <= 5.5\ngini = 0.403\nsamples = 751\nvalue = [541, 210]", fillcolor="#efb286"] ;
123 -> 124 ;
125 [label="TM_VISIT <= 0.5\ngini = 0.395\nsamples = 730\nvalue = [532, 198]", fillcolor="#efb083"] ;
124 -> 125 ;
126 [label="CFH_VISIT <= 0.5\ngini = 0.414\nsamples = 369\nvalue = [261, 108]", fillcolor="#f0b58b"] ;
125 -> 126 ;
127 [label="gini = 0.425\nsamples = 313\nvalue = [217, 96]", fillcolor="#f1b991"] ;
126 -> 127 ;
128 [label="gini = 0.337\nsamples = 56\nvalue = [44, 12]", fillcolor="#eca36f"] ;
126 -> 128 ;
129 [label="TOTAL <= 4.5\ngini = 0.374\nsamples = 361\nvalue = [271, 90]", fillcolor="#eeab7b"] ;
125 -> 129 ;
130 [label="CFH_VISIT <= 0.5\ngini = 0.375\nsamples = 360\nvalue = [270, 90]", fillcolor="#eeab7b"] ;
129 -> 130 ;
131 [label="gini = 0.372\nsamples = 299\nvalue = [225, 74]", fillcolor="#eeaa7a"] ;
130 -> 131 ;
132 [label="gini = 0.387\nsamples = 61\nvalue = [45, 16]", fillcolor="#eeae7f"] ;
130 -> 132 ;
133 [label="gini = 0.0\nsamples = 1\nvalue = [1, 0]", fillcolor="#e58139"] ;
129 -> 133 ;
134 [label="TM_VISIT <= 0.5\ngini = 0.49\nsamples = 21\nvalue = [9, 12]", fillcolor="#cee6f8"] ;
124 -> 134 ;
135 [label="CFH_VISIT <= 0.5\ngini = 0.346\nsamples = 9\nvalue = [2, 7]", fillcolor="#72b9ec"] ;
134 -> 135 ;
136 [label="TOTAL <= 7.0\ngini = 0.375\nsamples = 8\nvalue = [2, 6]", fillcolor="#7bbeee"] ;
135 -> 136 ;
137 [label="gini = 0.0\nsamples = 1\nvalue = [0, 1]", fillcolor="#399de5"] ;
136 -> 137 ;
138 [label="TOTAL <= 10.5\ngini = 0.408\nsamples = 7\nvalue = [2, 5]", fillcolor="#88c4ef"] ;
136 -> 138 ;
139 [label="TOTAL <= 9.5\ngini = 0.444\nsamples = 6\nvalue = [2, 4]", fillcolor="#9ccef2"] ;
138 -> 139 ;
140 [label="TOTAL <= 8.5\ngini = 0.375\nsamples = 4\nvalue = [1, 3]", fillcolor="#7bbeee"] ;
139 -> 140 ;
141 [label="gini = 0.444\nsamples = 3\nvalue = [1, 2]", fillcolor="#9ccef2"] ;
140 -> 141 ;
142 [label="gini = 0.0\nsamples = 1\nvalue = [0, 1]", fillcolor="#399de5"] ;
140 -> 142 ;
143 [label="gini = 0.5\nsamples = 2\nvalue = [1, 1]", fillcolor="#ffffff"] ;
139 -> 143 ;
144 [label="gini = 0.0\nsamples = 1\nvalue = [0, 1]", fillcolor="#399de5"] ;
138 -> 144 ;
145 [label="gini = 0.0\nsamples = 1\nvalue = [0, 1]", fillcolor="#399de5"] ;
135 -> 145 ;
146 [label="TOTAL <= 6.5\ngini = 0.486\nsamples = 12\nvalue = [7, 5]", fillcolor="#f8dbc6"] ;
134 -> 146 ;
147 [label="gini = 0.0\nsamples = 1\nvalue = [1, 0]", fillcolor="#e58139"] ;
146 -> 147 ;
148 [label="TOTAL <= 7.5\ngini = 0.496\nsamples = 11\nvalue = [6, 5]", fillcolor="#fbeade"] ;
146 -> 148 ;
149 [label="gini = 0.0\nsamples = 1\nvalue = [0, 1]", fillcolor="#399de5"] ;
148 -> 149 ;
150 [label="TOTAL <= 9.5\ngini = 0.48\nsamples = 10\nvalue = [6, 4]", fillcolor="#f6d5bd"] ;
148 -> 150 ;
151 [label="gini = 0.469\nsamples = 8\nvalue = [5, 3]", fillcolor="#f5cdb0"] ;
150 -> 151 ;
152 [label="gini = 0.5\nsamples = 2\nvalue = [1, 1]", fillcolor="#ffffff"] ;
150 -> 152 ;
153 [label="TOTAL <= 115.5\ngini = 0.335\nsamples = 138489\nvalue = [109006, 29483]", fillcolor="#eca36f"] ;
123 -> 153 ;
154 [label="TOTAL <= 12.5\ngini = 0.145\nsamples = 790\nvalue = [728, 62]", fillcolor="#e78c4a"] ;
153 -> 154 ;
155 [label="CFH_VISIT <= 0.5\ngini = 0.284\nsamples = 70\nvalue = [58, 12]", fillcolor="#ea9b62"] ;
154 -> 155 ;
156 [label="TM_VISIT <= 0.5\ngini = 0.328\nsamples = 58\nvalue = [46, 12]", fillcolor="#eca26d"] ;
155 -> 156 ;
157 [label="gini = 0.365\nsamples = 25\nvalue = [19, 6]", fillcolor="#eda978"] ;
156 -> 157 ;
158 [label="gini = 0.298\nsamples = 33\nvalue = [27, 6]", fillcolor="#eb9d65"] ;
156 -> 158 ;
159 [label="gini = 0.0\nsamples = 12\nvalue = [12, 0]", fillcolor="#e58139"] ;
155 -> 159 ;
160 [label="TOTAL <= 92.5\ngini = 0.129\nsamples = 720\nvalue = [670, 50]", fillcolor="#e78a48"] ;
154 -> 160 ;
161 [label="TOTAL <= 91.5\ngini = 0.144\nsamples = 550\nvalue = [507, 43]", fillcolor="#e78c4a"] ;
160 -> 161 ;
162 [label="TOTAL <= 43.5\ngini = 0.141\nsamples = 549\nvalue = [507, 42]", fillcolor="#e78b49"] ;
161 -> 162 ;
163 [label="TOTAL <= 21.5\ngini = 0.096\nsamples = 158\nvalue = [150, 8]", fillcolor="#e68844"] ;
162 -> 163 ;
164 [label="TOTAL <= 20.5\ngini = 0.15\nsamples = 61\nvalue = [56, 5]", fillcolor="#e78c4b"] ;
163 -> 164 ;
165 [label="gini = 0.0\nsamples = 12\nvalue = [12, 0]", fillcolor="#e58139"] ;
164 -> 165 ;
166 [label="TM_VISIT <= 0.5\ngini = 0.183\nsamples = 49\nvalue = [44, 5]", fillcolor="#e88f50"] ;
164 -> 166 ;
167 [label="CFH_VISIT <= 0.5\ngini = 0.219\nsamples = 24\nvalue = [21, 3]", fillcolor="#e99355"] ;
166 -> 167 ;
168 [label="gini = 0.236\nsamples = 22\nvalue = [19, 3]", fillcolor="#e99558"] ;
167 -> 168 ;
169 [label="gini = 0.0\nsamples = 2\nvalue = [2, 0]", fillcolor="#e58139"] ;
167 -> 169 ;
170 [label="CFH_VISIT <= 0.5\ngini = 0.147\nsamples = 25\nvalue = [23, 2]", fillcolor="#e78c4a"] ;
166 -> 170 ;
171 [label="gini = 0.111\nsamples = 17\nvalue = [16, 1]", fillcolor="#e78945"] ;
170 -> 171 ;
172 [label="gini = 0.219\nsamples = 8\nvalue = [7, 1]", fillcolor="#e99355"] ;
170 -> 172 ;
173 [label="TM_VISIT <= 0.5\ngini = 0.06\nsamples = 97\nvalue = [94, 3]", fillcolor="#e6853f"] ;
163 -> 173 ;
174 [label="gini = 0.0\nsamples = 46\nvalue = [46, 0]", fillcolor="#e58139"] ;
173 -> 174 ;
175 [label="TOTAL <= 32.5\ngini = 0.111\nsamples = 51\nvalue = [48, 3]", fillcolor="#e78945"] ;
173 -> 175 ;
176 [label="gini = 0.0\nsamples = 8\nvalue = [8, 0]", fillcolor="#e58139"] ;
175 -> 176 ;
177 [label="TOTAL <= 33.5\ngini = 0.13\nsamples = 43\nvalue = [40, 3]", fillcolor="#e78a48"] ;
175 -> 177 ;
178 [label="CFH_VISIT <= 0.5\ngini = 0.157\nsamples = 35\nvalue = [32, 3]", fillcolor="#e78d4c"] ;
177 -> 178 ;
179 [label="gini = 0.137\nsamples = 27\nvalue = [25, 2]", fillcolor="#e78b49"] ;
178 -> 179 ;
180 [label="gini = 0.219\nsamples = 8\nvalue = [7, 1]", fillcolor="#e99355"] ;
178 -> 180 ;
181 [label="gini = 0.0\nsamples = 8\nvalue = [8, 0]", fillcolor="#e58139"] ;
177 -> 181 ;
182 [label="TOTAL <= 87.5\ngini = 0.159\nsamples = 391\nvalue = [357, 34]", fillcolor="#e78d4c"] ;
162 -> 182 ;
183 [label="TOTAL <= 86.5\ngini = 0.163\nsamples = 380\nvalue = [346, 34]", fillcolor="#e88d4c"] ;
182 -> 183 ;
184 [label="TOTAL <= 80.5\ngini = 0.159\nsamples = 379\nvalue = [346, 33]", fillcolor="#e78d4c"] ;
183 -> 184 ;
185 [label="TOTAL <= 70.5\ngini = 0.151\nsamples = 317\nvalue = [291, 26]", fillcolor="#e78c4b"] ;
184 -> 185 ;
186 [label="TOTAL <= 67.5\ngini = 0.169\nsamples = 226\nvalue = [205, 21]", fillcolor="#e88e4d"] ;
185 -> 186 ;
187 [label="CFH_VISIT <= 0.5\ngini = 0.15\nsamples = 220\nvalue = [202, 18]", fillcolor="#e78c4b"] ;
186 -> 187 ;
188 [label="TOTAL <= 65.5\ngini = 0.124\nsamples = 165\nvalue = [154, 11]", fillcolor="#e78a47"] ;
187 -> 188 ;
189 [label="TOTAL <= 58.5\ngini = 0.108\nsamples = 122\nvalue = [115, 7]", fillcolor="#e78945"] ;
188 -> 189 ;
190 [label="TOTAL <= 57.0\ngini = 0.118\nsamples = 111\nvalue = [104, 7]", fillcolor="#e78946"] ;
189 -> 190 ;
191 [label="TM_VISIT <= 0.5\ngini = 0.091\nsamples = 63\nvalue = [60, 3]", fillcolor="#e68743"] ;
190 -> 191 ;
192 [label="gini = 0.0\nsamples = 24\nvalue = [24, 0]", fillcolor="#e58139"] ;
191 -> 192 ;
193 [label="TOTAL <= 49.5\ngini = 0.142\nsamples = 39\nvalue = [36, 3]", fillcolor="#e78c49"] ;
191 -> 193 ;
194 [label="TOTAL <= 48.5\ngini = 0.185\nsamples = 29\nvalue = [26, 3]", fillcolor="#e89050"] ;
193 -> 194 ;
195 [label="TOTAL <= 44.5\ngini = 0.133\nsamples = 28\nvalue = [26, 2]", fillcolor="#e78b48"] ;
194 -> 195 ;
196 [label="gini = 0.153\nsamples = 24\nvalue = [22, 2]", fillcolor="#e78c4b"] ;
195 -> 196 ;
197 [label="gini = 0.0\nsamples = 4\nvalue = [4, 0]", fillcolor="#e58139"] ;
195 -> 197 ;
198 [label="gini = 0.0\nsamples = 1\nvalue = [0, 1]", fillcolor="#399de5"] ;
194 -> 198 ;
199 [label="gini = 0.0\nsamples = 10\nvalue = [10, 0]", fillcolor="#e58139"] ;
193 -> 199 ;
200 [label="TM_VISIT <= 0.5\ngini = 0.153\nsamples = 48\nvalue = [44, 4]", fillcolor="#e78c4b"] ;
190 -> 200 ;
201 [label="gini = 0.175\nsamples = 31\nvalue = [28, 3]", fillcolor="#e88e4e"] ;
200 -> 201 ;
202 [label="gini = 0.111\nsamples = 17\nvalue = [16, 1]", fillcolor="#e78945"] ;
200 -> 202 ;
203 [label="gini = 0.0\nsamples = 11\nvalue = [11, 0]", fillcolor="#e58139"] ;
189 -> 203 ;
204 [label="TM_VISIT <= 0.5\ngini = 0.169\nsamples = 43\nvalue = [39, 4]", fillcolor="#e88e4d"] ;
188 -> 204 ;
205 [label="TOTAL <= 66.5\ngini = 0.219\nsamples = 24\nvalue = [21, 3]", fillcolor="#e99355"] ;
204 -> 205 ;
206 [label="gini = 0.227\nsamples = 23\nvalue = [20, 3]", fillcolor="#e99457"] ;
205 -> 206 ;
207 [label="gini = 0.0\nsamples = 1\nvalue = [1, 0]", fillcolor="#e58139"] ;
205 -> 207 ;
208 [label="TOTAL <= 66.5\ngini = 0.1\nsamples = 19\nvalue = [18, 1]", fillcolor="#e68844"] ;
204 -> 208 ;
209 [label="gini = 0.105\nsamples = 18\nvalue = [17, 1]", fillcolor="#e78845"] ;
208 -> 209 ;
210 [label="gini = 0.0\nsamples = 1\nvalue = [1, 0]", fillcolor="#e58139"] ;
208 -> 210 ;
211 [label="TOTAL <= 53.5\ngini = 0.222\nsamples = 55\nvalue = [48, 7]", fillcolor="#e99356"] ;
187 -> 211 ;
212 [label="TM_VISIT <= 0.5\ngini = 0.36\nsamples = 17\nvalue = [13, 4]", fillcolor="#eda876"] ;
211 -> 212 ;
213 [label="TOTAL <= 47.0\ngini = 0.5\nsamples = 4\nvalue = [2, 2]", fillcolor="#ffffff"] ;
212 -> 213 ;
214 [label="gini = 0.444\nsamples = 3\nvalue = [2, 1]", fillcolor="#f2c09c"] ;
213 -> 214 ;
215 [label="gini = 0.0\nsamples = 1\nvalue = [0, 1]", fillcolor="#399de5"] ;
213 -> 215 ;
216 [label="TOTAL <= 45.0\ngini = 0.26\nsamples = 13\nvalue = [11, 2]", fillcolor="#ea985d"] ;
212 -> 216 ;
217 [label="gini = 0.298\nsamples = 11\nvalue = [9, 2]", fillcolor="#eb9d65"] ;
216 -> 217 ;
218 [label="gini = 0.0\nsamples = 2\nvalue = [2, 0]", fillcolor="#e58139"] ;
216 -> 218 ;
219 [label="TM_VISIT <= 0.5\ngini = 0.145\nsamples = 38\nvalue = [35, 3]", fillcolor="#e78c4a"] ;
211 -> 219 ;
220 [label="TOTAL <= 60.5\ngini = 0.095\nsamples = 20\nvalue = [19, 1]", fillcolor="#e68843"] ;
219 -> 220 ;
221 [label="gini = 0.165\nsamples = 11\nvalue = [10, 1]", fillcolor="#e88e4d"] ;
220 -> 221 ;
222 [label="gini = 0.0\nsamples = 9\nvalue = [9, 0]", fillcolor="#e58139"] ;
220 -> 222 ;
223 [label="TOTAL <= 66.5\ngini = 0.198\nsamples = 18\nvalue = [16, 2]", fillcolor="#e89152"] ;
219 -> 223 ;
224 [label="TOTAL <= 64.0\ngini = 0.231\nsamples = 15\nvalue = [13, 2]", fillcolor="#e99457"] ;
223 -> 224 ;
225 [label="TOTAL <= 60.0\ngini = 0.165\nsamples = 11\nvalue = [10, 1]", fillcolor="#e88e4d"] ;
224 -> 225 ;
226 [label="TOTAL <= 57.5\ngini = 0.219\nsamples = 8\nvalue = [7, 1]", fillcolor="#e99355"] ;
225 -> 226 ;
227 [label="gini = 0.0\nsamples = 1\nvalue = [1, 0]", fillcolor="#e58139"] ;
226 -> 227 ;
228 [label="gini = 0.245\nsamples = 7\nvalue = [6, 1]", fillcolor="#e9965a"] ;
226 -> 228 ;
229 [label="gini = 0.0\nsamples = 3\nvalue = [3, 0]", fillcolor="#e58139"] ;
225 -> 229 ;
230 [label="gini = 0.375\nsamples = 4\nvalue = [3, 1]", fillcolor="#eeab7b"] ;
224 -> 230 ;
231 [label="gini = 0.0\nsamples = 3\nvalue = [3, 0]", fillcolor="#e58139"] ;
223 -> 231 ;
232 [label="TOTAL <= 69.5\ngini = 0.5\nsamples = 6\nvalue = [3, 3]", fillcolor="#ffffff"] ;
186 -> 232 ;
233 [label="gini = 0.0\nsamples = 2\nvalue = [0, 2]", fillcolor="#399de5"] ;
232 -> 233 ;
234 [label="TM_VISIT <= 0.5\ngini = 0.375\nsamples = 4\nvalue = [3, 1]", fillcolor="#eeab7b"] ;
232 -> 234 ;
235 [label="gini = 0.5\nsamples = 2\nvalue = [1, 1]", fillcolor="#ffffff"] ;
234 -> 235 ;
236 [label="gini = 0.0\nsamples = 2\nvalue = [2, 0]", fillcolor="#e58139"] ;
234 -> 236 ;
237 [label="TM_VISIT <= 0.5\ngini = 0.104\nsamples = 91\nvalue = [86, 5]", fillcolor="#e78845"] ;
185 -> 237 ;
238 [label="CFH_VISIT <= 0.5\ngini = 0.043\nsamples = 46\nvalue = [45, 1]", fillcolor="#e6843d"] ;
237 -> 238 ;
239 [label="TOTAL <= 77.5\ngini = 0.046\nsamples = 42\nvalue = [41, 1]", fillcolor="#e6843e"] ;
238 -> 239 ;
240 [label="gini = 0.0\nsamples = 4\nvalue = [4, 0]", fillcolor="#e58139"] ;
239 -> 240 ;
241 [label="TOTAL <= 78.5\ngini = 0.051\nsamples = 38\nvalue = [37, 1]", fillcolor="#e6843e"] ;
239 -> 241 ;
242 [label="gini = 0.054\nsamples = 36\nvalue = [35, 1]", fillcolor="#e6853f"] ;
241 -> 242 ;
243 [label="gini = 0.0\nsamples = 2\nvalue = [2, 0]", fillcolor="#e58139"] ;
241 -> 243 ;
244 [label="gini = 0.0\nsamples = 4\nvalue = [4, 0]", fillcolor="#e58139"] ;
238 -> 244 ;
245 [label="CFH_VISIT <= 0.5\ngini = 0.162\nsamples = 45\nvalue = [41, 4]", fillcolor="#e88d4c"] ;
237 -> 245 ;
246 [label="TOTAL <= 76.5\ngini = 0.193\nsamples = 37\nvalue = [33, 4]", fillcolor="#e89051"] ;
245 -> 246 ;
247 [label="gini = 0.0\nsamples = 2\nvalue = [2, 0]", fillcolor="#e58139"] ;
246 -> 247 ;
248 [label="gini = 0.202\nsamples = 35\nvalue = [31, 4]", fillcolor="#e89153"] ;
246 -> 248 ;
249 [label="gini = 0.0\nsamples = 8\nvalue = [8, 0]", fillcolor="#e58139"] ;
245 -> 249 ;
250 [label="TOTAL <= 81.5\ngini = 0.2\nsamples = 62\nvalue = [55, 7]", fillcolor="#e89152"] ;
184 -> 250 ;
251 [label="TM_VISIT <= 0.5\ngini = 0.444\nsamples = 3\nvalue = [2, 1]", fillcolor="#f2c09c"] ;
250 -> 251 ;
252 [label="gini = 0.0\nsamples = 1\nvalue = [1, 0]", fillcolor="#e58139"] ;
251 -> 252 ;
253 [label="gini = 0.5\nsamples = 2\nvalue = [1, 1]", fillcolor="#ffffff"] ;
251 -> 253 ;
254 [label="CFH_VISIT <= 0.5\ngini = 0.183\nsamples = 59\nvalue = [53, 6]", fillcolor="#e88f4f"] ;
250 -> 254 ;
255 [label="TOTAL <= 85.5\ngini = 0.208\nsamples = 51\nvalue = [45, 6]", fillcolor="#e89253"] ;
254 -> 255 ;
256 [label="gini = 0.0\nsamples = 4\nvalue = [4, 0]", fillcolor="#e58139"] ;
255 -> 256 ;
257 [label="TM_VISIT <= 0.5\ngini = 0.223\nsamples = 47\nvalue = [41, 6]", fillcolor="#e99356"] ;
255 -> 257 ;
258 [label="gini = 0.211\nsamples = 25\nvalue = [22, 3]", fillcolor="#e99254"] ;
257 -> 258 ;
259 [label="gini = 0.236\nsamples = 22\nvalue = [19, 3]", fillcolor="#e99558"] ;
257 -> 259 ;
260 [label="gini = 0.0\nsamples = 8\nvalue = [8, 0]", fillcolor="#e58139"] ;
254 -> 260 ;
261 [label="gini = 0.0\nsamples = 1\nvalue = [0, 1]", fillcolor="#399de5"] ;
183 -> 261 ;
262 [label="gini = 0.0\nsamples = 11\nvalue = [11, 0]", fillcolor="#e58139"] ;
182 -> 262 ;
263 [label="gini = 0.0\nsamples = 1\nvalue = [0, 1]", fillcolor="#399de5"] ;
161 -> 263 ;
264 [label="TOTAL <= 100.5\ngini = 0.079\nsamples = 170\nvalue = [163, 7]", fillcolor="#e68642"] ;
160 -> 264 ;
265 [label="TOTAL <= 99.5\ngini = 0.105\nsamples = 90\nvalue = [85, 5]", fillcolor="#e78845"] ;
264 -> 265 ;
266 [label="TM_VISIT <= 0.5\ngini = 0.089\nsamples = 86\nvalue = [82, 4]", fillcolor="#e68743"] ;
265 -> 266 ;
267 [label="CFH_VISIT <= 0.5\ngini = 0.053\nsamples = 37\nvalue = [36, 1]", fillcolor="#e6843e"] ;
266 -> 267 ;
268 [label="TOTAL <= 97.5\ngini = 0.061\nsamples = 32\nvalue = [31, 1]", fillcolor="#e6853f"] ;
267 -> 268 ;
269 [label="gini = 0.0\nsamples = 3\nvalue = [3, 0]", fillcolor="#e58139"] ;
268 -> 269 ;
270 [label="gini = 0.067\nsamples = 29\nvalue = [28, 1]", fillcolor="#e68640"] ;
268 -> 270 ;
271 [label="gini = 0.0\nsamples = 5\nvalue = [5, 0]", fillcolor="#e58139"] ;
267 -> 271 ;
272 [label="CFH_VISIT <= 0.5\ngini = 0.115\nsamples = 49\nvalue = [46, 3]", fillcolor="#e78946"] ;
266 -> 272 ;
273 [label="TOTAL <= 96.5\ngini = 0.1\nsamples = 38\nvalue = [36, 2]", fillcolor="#e68844"] ;
272 -> 273 ;
274 [label="gini = 0.0\nsamples = 2\nvalue = [2, 0]", fillcolor="#e58139"] ;
273 -> 274 ;
275 [label="TOTAL <= 98.5\ngini = 0.105\nsamples = 36\nvalue = [34, 2]", fillcolor="#e78845"] ;
273 -> 275 ;
276 [label="gini = 0.108\nsamples = 35\nvalue = [33, 2]", fillcolor="#e78945"] ;
275 -> 276 ;
277 [label="gini = 0.0\nsamples = 1\nvalue = [1, 0]", fillcolor="#e58139"] ;
275 -> 277 ;
278 [label="TOTAL <= 98.5\ngini = 0.165\nsamples = 11\nvalue = [10, 1]", fillcolor="#e88e4d"] ;
272 -> 278 ;
279 [label="gini = 0.198\nsamples = 9\nvalue = [8, 1]", fillcolor="#e89152"] ;
278 -> 279 ;
280 [label="gini = 0.0\nsamples = 2\nvalue = [2, 0]", fillcolor="#e58139"] ;
278 -> 280 ;
281 [label="gini = 0.375\nsamples = 4\nvalue = [3, 1]", fillcolor="#eeab7b"] ;
265 -> 281 ;
282 [label="TM_VISIT <= 0.5\ngini = 0.049\nsamples = 80\nvalue = [78, 2]", fillcolor="#e6843e"] ;
264 -> 282 ;
283 [label="CFH_VISIT <= 0.5\ngini = 0.1\nsamples = 38\nvalue = [36, 2]", fillcolor="#e68844"] ;
282 -> 283 ;
284 [label="TOTAL <= 104.5\ngini = 0.117\nsamples = 32\nvalue = [30, 2]", fillcolor="#e78946"] ;
283 -> 284 ;
285 [label="gini = 0.0\nsamples = 4\nvalue = [4, 0]", fillcolor="#e58139"] ;
284 -> 285 ;
286 [label="TOTAL <= 106.0\ngini = 0.133\nsamples = 28\nvalue = [26, 2]", fillcolor="#e78b48"] ;
284 -> 286 ;
287 [label="gini = 0.142\nsamples = 26\nvalue = [24, 2]", fillcolor="#e78c49"] ;
286 -> 287 ;
288 [label="gini = 0.0\nsamples = 2\nvalue = [2, 0]", fillcolor="#e58139"] ;
286 -> 288 ;
289 [label="gini = 0.0\nsamples = 6\nvalue = [6, 0]", fillcolor="#e58139"] ;
283 -> 289 ;
290 [label="gini = 0.0\nsamples = 42\nvalue = [42, 0]", fillcolor="#e58139"] ;
282 -> 290 ;
291 [label="TOTAL <= 123.5\ngini = 0.336\nsamples = 137699\nvalue = [108278, 29421]", fillcolor="#eca36f"] ;
153 -> 291 ;
292 [label="TM_VISIT <= 0.5\ngini = 0.492\nsamples = 282\nvalue = [123, 159]", fillcolor="#d2e9f9"] ;
291 -> 292 ;
293 [label="CFH_VISIT <= 0.5\ngini = 0.461\nsamples = 125\nvalue = [45, 80]", fillcolor="#a8d4f4"] ;
292 -> 293 ;
294 [label="TOTAL <= 117.5\ngini = 0.47\nsamples = 114\nvalue = [43, 71]", fillcolor="#b1d8f5"] ;
293 -> 294 ;
295 [label="gini = 0.469\nsamples = 109\nvalue = [41, 68]", fillcolor="#b0d8f5"] ;
294 -> 295 ;
296 [label="gini = 0.48\nsamples = 5\nvalue = [2, 3]", fillcolor="#bddef6"] ;
294 -> 296 ;
297 [label="gini = 0.298\nsamples = 11\nvalue = [2, 9]", fillcolor="#65b3eb"] ;
293 -> 297 ;
298 [label="TOTAL <= 121.5\ngini = 0.5\nsamples = 157\nvalue = [78, 79]", fillcolor="#fcfeff"] ;
292 -> 298 ;
299 [label="TOTAL <= 119.5\ngini = 0.5\nsamples = 155\nvalue = [78, 77]", fillcolor="#fffdfc"] ;
298 -> 299 ;
300 [label="TOTAL <= 116.5\ngini = 0.5\nsamples = 152\nvalue = [75, 77]", fillcolor="#fafcfe"] ;
299 -> 300 ;
301 [label="CFH_VISIT <= 0.5\ngini = 0.5\nsamples = 143\nvalue = [73, 70]", fillcolor="#fefaf7"] ;
300 -> 301 ;
302 [label="gini = 0.499\nsamples = 112\nvalue = [59, 53]", fillcolor="#fcf2eb"] ;
301 -> 302 ;
303 [label="gini = 0.495\nsamples = 31\nvalue = [14, 17]", fillcolor="#dceefa"] ;
301 -> 303 ;
304 [label="TOTAL <= 118.5\ngini = 0.346\nsamples = 9\nvalue = [2, 7]", fillcolor="#72b9ec"] ;
300 -> 304 ;
305 [label="gini = 0.0\nsamples = 3\nvalue = [0, 3]", fillcolor="#399de5"] ;
304 -> 305 ;
306 [label="CFH_VISIT <= 0.5\ngini = 0.444\nsamples = 6\nvalue = [2, 4]", fillcolor="#9ccef2"] ;
304 -> 306 ;
307 [label="gini = 0.48\nsamples = 5\nvalue = [2, 3]", fillcolor="#bddef6"] ;
306 -> 307 ;
308 [label="gini = 0.0\nsamples = 1\nvalue = [0, 1]", fillcolor="#399de5"] ;
306 -> 308 ;
309 [label="gini = 0.0\nsamples = 3\nvalue = [3, 0]", fillcolor="#e58139"] ;
299 -> 309 ;
310 [label="gini = 0.0\nsamples = 2\nvalue = [0, 2]", fillcolor="#399de5"] ;
298 -> 310 ;
311 [label="TOTAL <= 232.5\ngini = 0.335\nsamples = 137417\nvalue = [108155, 29262]", fillcolor="#eca36f"] ;
291 -> 311 ;
312 [label="CFH_VISIT <= 0.5\ngini = 0.156\nsamples = 753\nvalue = [689, 64]", fillcolor="#e78d4b"] ;
311 -> 312 ;
313 [label="TOTAL <= 159.5\ngini = 0.171\nsamples = 613\nvalue = [555, 58]", fillcolor="#e88e4e"] ;
312 -> 313 ;
314 [label="TOTAL <= 124.5\ngini = 0.219\nsamples = 240\nvalue = [210, 30]", fillcolor="#e99355"] ;
313 -> 314 ;
315 [label="TM_VISIT <= 0.5\ngini = 0.5\nsamples = 2\nvalue = [1, 1]", fillcolor="#ffffff"] ;
314 -> 315 ;
316 [label="gini = 0.0\nsamples = 1\nvalue = [0, 1]", fillcolor="#399de5"] ;
315 -> 316 ;
317 [label="gini = 0.0\nsamples = 1\nvalue = [1, 0]", fillcolor="#e58139"] ;
315 -> 317 ;
318 [label="TM_VISIT <= 0.5\ngini = 0.214\nsamples = 238\nvalue = [209, 29]", fillcolor="#e99254"] ;
314 -> 318 ;
319 [label="TOTAL <= 125.5\ngini = 0.227\nsamples = 130\nvalue = [113, 17]", fillcolor="#e99457"] ;
318 -> 319 ;
320 [label="gini = 0.291\nsamples = 34\nvalue = [28, 6]", fillcolor="#eb9c63"] ;
319 -> 320 ;
321 [label="TOTAL <= 139.0\ngini = 0.203\nsamples = 96\nvalue = [85, 11]", fillcolor="#e89153"] ;
319 -> 321 ;
322 [label="TOTAL <= 136.0\ngini = 0.062\nsamples = 31\nvalue = [30, 1]", fillcolor="#e68540"] ;
321 -> 322 ;
323 [label="gini = 0.0\nsamples = 9\nvalue = [9, 0]", fillcolor="#e58139"] ;
322 -> 323 ;
324 [label="TOTAL <= 137.5\ngini = 0.087\nsamples = 22\nvalue = [21, 1]", fillcolor="#e68742"] ;
322 -> 324 ;
325 [label="gini = 0.091\nsamples = 21\nvalue = [20, 1]", fillcolor="#e68743"] ;
324 -> 325 ;
326 [label="gini = 0.0\nsamples = 1\nvalue = [1, 0]", fillcolor="#e58139"] ;
324 -> 326 ;
327 [label="TOTAL <= 141.0\ngini = 0.26\nsamples = 65\nvalue = [55, 10]", fillcolor="#ea985d"] ;
321 -> 327 ;
328 [label="gini = 0.5\nsamples = 2\nvalue = [1, 1]", fillcolor="#ffffff"] ;
327 -> 328 ;
329 [label="TOTAL <= 148.5\ngini = 0.245\nsamples = 63\nvalue = [54, 9]", fillcolor="#e9965a"] ;
327 -> 329 ;
330 [label="gini = 0.0\nsamples = 5\nvalue = [5, 0]", fillcolor="#e58139"] ;
329 -> 330 ;
331 [label="TOTAL <= 149.5\ngini = 0.262\nsamples = 58\nvalue = [49, 9]", fillcolor="#ea985d"] ;
329 -> 331 ;
332 [label="gini = 0.285\nsamples = 29\nvalue = [24, 5]", fillcolor="#ea9b62"] ;
331 -> 332 ;
333 [label="TOTAL <= 155.5\ngini = 0.238\nsamples = 29\nvalue = [25, 4]", fillcolor="#e99559"] ;
331 -> 333 ;
334 [label="gini = 0.0\nsamples = 5\nvalue = [5, 0]", fillcolor="#e58139"] ;
333 -> 334 ;
335 [label="gini = 0.278\nsamples = 24\nvalue = [20, 4]", fillcolor="#ea9a61"] ;
333 -> 335 ;
336 [label="TOTAL <= 136.5\ngini = 0.198\nsamples = 108\nvalue = [96, 12]", fillcolor="#e89152"] ;
318 -> 336 ;
337 [label="TOTAL <= 126.5\ngini = 0.121\nsamples = 31\nvalue = [29, 2]", fillcolor="#e78a47"] ;
336 -> 337 ;
338 [label="gini = 0.133\nsamples = 28\nvalue = [26, 2]", fillcolor="#e78b48"] ;
337 -> 338 ;
339 [label="gini = 0.0\nsamples = 3\nvalue = [3, 0]", fillcolor="#e58139"] ;
337 -> 339 ;
340 [label="TOTAL <= 138.0\ngini = 0.226\nsamples = 77\nvalue = [67, 10]", fillcolor="#e99457"] ;
336 -> 340 ;
341 [label="gini = 0.388\nsamples = 19\nvalue = [14, 5]", fillcolor="#eeae80"] ;
340 -> 341 ;
342 [label="TOTAL <= 147.5\ngini = 0.158\nsamples = 58\nvalue = [53, 5]", fillcolor="#e78d4c"] ;
340 -> 342 ;
343 [label="gini = 0.0\nsamples = 5\nvalue = [5, 0]", fillcolor="#e58139"] ;
342 -> 343 ;
344 [label="TOTAL <= 150.0\ngini = 0.171\nsamples = 53\nvalue = [48, 5]", fillcolor="#e88e4e"] ;
342 -> 344 ;
345 [label="gini = 0.204\nsamples = 26\nvalue = [23, 3]", fillcolor="#e89153"] ;
344 -> 345 ;
346 [label="TOTAL <= 158.0\ngini = 0.137\nsamples = 27\nvalue = [25, 2]", fillcolor="#e78b49"] ;
344 -> 346 ;
347 [label="gini = 0.0\nsamples = 6\nvalue = [6, 0]", fillcolor="#e58139"] ;
346 -> 347 ;
348 [label="gini = 0.172\nsamples = 21\nvalue = [19, 2]", fillcolor="#e88e4e"] ;
346 -> 348 ;
349 [label="TOTAL <= 166.5\ngini = 0.139\nsamples = 373\nvalue = [345, 28]", fillcolor="#e78b49"] ;
313 -> 349 ;
350 [label="TM_VISIT <= 0.5\ngini = 0.038\nsamples = 52\nvalue = [51, 1]", fillcolor="#e6833d"] ;
349 -> 350 ;
351 [label="TOTAL <= 165.0\ngini = 0.064\nsamples = 30\nvalue = [29, 1]", fillcolor="#e68540"] ;
350 -> 351 ;
352 [label="gini = 0.0\nsamples = 9\nvalue = [9, 0]", fillcolor="#e58139"] ;
351 -> 352 ;
353 [label="gini = 0.091\nsamples = 21\nvalue = [20, 1]", fillcolor="#e68743"] ;
351 -> 353 ;
354 [label="gini = 0.0\nsamples = 22\nvalue = [22, 0]", fillcolor="#e58139"] ;
350 -> 354 ;
355 [label="TOTAL <= 168.5\ngini = 0.154\nsamples = 321\nvalue = [294, 27]", fillcolor="#e78d4b"] ;
349 -> 355 ;
356 [label="TM_VISIT <= 0.5\ngini = 0.444\nsamples = 3\nvalue = [1, 2]", fillcolor="#9ccef2"] ;
355 -> 356 ;
357 [label="gini = 0.0\nsamples = 2\nvalue = [0, 2]", fillcolor="#399de5"] ;
356 -> 357 ;
358 [label="gini = 0.0\nsamples = 1\nvalue = [1, 0]", fillcolor="#e58139"] ;
356 -> 358 ;
359 [label="TM_VISIT <= 0.5\ngini = 0.145\nsamples = 318\nvalue = [293, 25]", fillcolor="#e78c4a"] ;
355 -> 359 ;
360 [label="TOTAL <= 193.0\ngini = 0.103\nsamples = 166\nvalue = [157, 9]", fillcolor="#e68844"] ;
359 -> 360 ;
361 [label="TOTAL <= 191.5\ngini = 0.159\nsamples = 69\nvalue = [63, 6]", fillcolor="#e78d4c"] ;
360 -> 361 ;
362 [label="TOTAL <= 180.5\ngini = 0.087\nsamples = 44\nvalue = [42, 2]", fillcolor="#e68742"] ;
361 -> 362 ;
363 [label="TOTAL <= 178.0\ngini = 0.117\nsamples = 32\nvalue = [30, 2]", fillcolor="#e78946"] ;
362 -> 363 ;
364 [label="gini = 0.0\nsamples = 4\nvalue = [4, 0]", fillcolor="#e58139"] ;
363 -> 364 ;
365 [label="gini = 0.133\nsamples = 28\nvalue = [26, 2]", fillcolor="#e78b48"] ;
363 -> 365 ;
366 [label="gini = 0.0\nsamples = 12\nvalue = [12, 0]", fillcolor="#e58139"] ;
362 -> 366 ;
367 [label="gini = 0.269\nsamples = 25\nvalue = [21, 4]", fillcolor="#ea995f"] ;
361 -> 367 ;
368 [label="TOTAL <= 217.5\ngini = 0.06\nsamples = 97\nvalue = [94, 3]", fillcolor="#e6853f"] ;
360 -> 368 ;
369 [label="TOTAL <= 216.5\ngini = 0.087\nsamples = 66\nvalue = [63, 3]", fillcolor="#e68742"] ;
368 -> 369 ;
370 [label="TOTAL <= 198.5\ngini = 0.06\nsamples = 65\nvalue = [63, 2]", fillcolor="#e6853f"] ;
369 -> 370 ;
371 [label="gini = 0.0\nsamples = 4\nvalue = [4, 0]", fillcolor="#e58139"] ;
370 -> 371 ;
372 [label="TOTAL <= 201.0\ngini = 0.063\nsamples = 61\nvalue = [59, 2]", fillcolor="#e68540"] ;
370 -> 372 ;
373 [label="gini = 0.08\nsamples = 24\nvalue = [23, 1]", fillcolor="#e68642"] ;
372 -> 373 ;
374 [label="TOTAL <= 213.5\ngini = 0.053\nsamples = 37\nvalue = [36, 1]", fillcolor="#e6843e"] ;
372 -> 374 ;
375 [label="gini = 0.0\nsamples = 11\nvalue = [11, 0]", fillcolor="#e58139"] ;
374 -> 375 ;
376 [label="TOTAL <= 215.0\ngini = 0.074\nsamples = 26\nvalue = [25, 1]", fillcolor="#e68641"] ;
374 -> 376 ;
377 [label="gini = 0.077\nsamples = 25\nvalue = [24, 1]", fillcolor="#e68641"] ;
376 -> 377 ;
378 [label="gini = 0.0\nsamples = 1\nvalue = [1, 0]", fillcolor="#e58139"] ;
376 -> 378 ;
379 [label="gini = 0.0\nsamples = 1\nvalue = [0, 1]", fillcolor="#399de5"] ;
369 -> 379 ;
380 [label="gini = 0.0\nsamples = 31\nvalue = [31, 0]", fillcolor="#e58139"] ;
368 -> 380 ;
381 [label="TOTAL <= 194.0\ngini = 0.188\nsamples = 152\nvalue = [136, 16]", fillcolor="#e89050"] ;
359 -> 381 ;
382 [label="TOTAL <= 183.5\ngini = 0.105\nsamples = 54\nvalue = [51, 3]", fillcolor="#e78845"] ;
381 -> 382 ;
383 [label="TOTAL <= 178.5\ngini = 0.147\nsamples = 25\nvalue = [23, 2]", fillcolor="#e78c4a"] ;
382 -> 383 ;
384 [label="gini = 0.0\nsamples = 4\nvalue = [4, 0]", fillcolor="#e58139"] ;
383 -> 384 ;
385 [label="gini = 0.172\nsamples = 21\nvalue = [19, 2]", fillcolor="#e88e4e"] ;
383 -> 385 ;
386 [label="TOTAL <= 190.0\ngini = 0.067\nsamples = 29\nvalue = [28, 1]", fillcolor="#e68640"] ;
382 -> 386 ;
387 [label="gini = 0.0\nsamples = 1\nvalue = [1, 0]", fillcolor="#e58139"] ;
386 -> 387 ;
388 [label="TOTAL <= 192.5\ngini = 0.069\nsamples = 28\nvalue = [27, 1]", fillcolor="#e68640"] ;
386 -> 388 ;
389 [label="gini = 0.071\nsamples = 27\nvalue = [26, 1]", fillcolor="#e68641"] ;
388 -> 389 ;
390 [label="gini = 0.0\nsamples = 1\nvalue = [1, 0]", fillcolor="#e58139"] ;
388 -> 390 ;
391 [label="TOTAL <= 195.5\ngini = 0.23\nsamples = 98\nvalue = [85, 13]", fillcolor="#e99457"] ;
381 -> 391 ;
392 [label="gini = 0.0\nsamples = 1\nvalue = [0, 1]", fillcolor="#399de5"] ;
391 -> 392 ;
393 [label="TOTAL <= 200.5\ngini = 0.217\nsamples = 97\nvalue = [85, 12]", fillcolor="#e99355"] ;
391 -> 393 ;
394 [label="TOTAL <= 199.0\ngini = 0.337\nsamples = 28\nvalue = [22, 6]", fillcolor="#eca36f"] ;
393 -> 394 ;
395 [label="gini = 0.0\nsamples = 4\nvalue = [4, 0]", fillcolor="#e58139"] ;
394 -> 395 ;
396 [label="gini = 0.375\nsamples = 24\nvalue = [18, 6]", fillcolor="#eeab7b"] ;
394 -> 396 ;
397 [label="TOTAL <= 212.5\ngini = 0.159\nsamples = 69\nvalue = [63, 6]", fillcolor="#e78d4c"] ;
393 -> 397 ;
398 [label="gini = 0.0\nsamples = 9\nvalue = [9, 0]", fillcolor="#e58139"] ;
397 -> 398 ;
399 [label="TOTAL <= 214.5\ngini = 0.18\nsamples = 60\nvalue = [54, 6]", fillcolor="#e88f4f"] ;
397 -> 399 ;
400 [label="gini = 0.252\nsamples = 27\nvalue = [23, 4]", fillcolor="#ea975b"] ;
399 -> 400 ;
401 [label="TOTAL <= 222.5\ngini = 0.114\nsamples = 33\nvalue = [31, 2]", fillcolor="#e78946"] ;
399 -> 401 ;
402 [label="gini = 0.0\nsamples = 9\nvalue = [9, 0]", fillcolor="#e58139"] ;
401 -> 402 ;
403 [label="TOTAL <= 224.0\ngini = 0.153\nsamples = 24\nvalue = [22, 2]", fillcolor="#e78c4b"] ;
401 -> 403 ;
404 [label="gini = 0.188\nsamples = 19\nvalue = [17, 2]", fillcolor="#e89050"] ;
403 -> 404 ;
405 [label="gini = 0.0\nsamples = 5\nvalue = [5, 0]", fillcolor="#e58139"] ;
403 -> 405 ;
406 [label="TOTAL <= 226.5\ngini = 0.082\nsamples = 140\nvalue = [134, 6]", fillcolor="#e68742"] ;
312 -> 406 ;
407 [label="TOTAL <= 192.5\ngini = 0.071\nsamples = 136\nvalue = [131, 5]", fillcolor="#e68641"] ;
406 -> 407 ;
408 [label="TM_VISIT <= 0.5\ngini = 0.092\nsamples = 103\nvalue = [98, 5]", fillcolor="#e68743"] ;
407 -> 408 ;
409 [label="TOTAL <= 134.5\ngini = 0.149\nsamples = 37\nvalue = [34, 3]", fillcolor="#e78c4a"] ;
408 -> 409 ;
410 [label="gini = 0.0\nsamples = 5\nvalue = [5, 0]", fillcolor="#e58139"] ;
409 -> 410 ;
411 [label="TOTAL <= 152.5\ngini = 0.17\nsamples = 32\nvalue = [29, 3]", fillcolor="#e88e4d"] ;
409 -> 411 ;
412 [label="TOTAL <= 138.5\ngini = 0.26\nsamples = 13\nvalue = [11, 2]", fillcolor="#ea985d"] ;
411 -> 412 ;
413 [label="gini = 0.32\nsamples = 5\nvalue = [4, 1]", fillcolor="#eca06a"] ;
412 -> 413 ;
414 [label="TOTAL <= 144.5\ngini = 0.219\nsamples = 8\nvalue = [7, 1]", fillcolor="#e99355"] ;
412 -> 414 ;
415 [label="gini = 0.0\nsamples = 2\nvalue = [2, 0]", fillcolor="#e58139"] ;
414 -> 415 ;
416 [label="gini = 0.278\nsamples = 6\nvalue = [5, 1]", fillcolor="#ea9a61"] ;
414 -> 416 ;
417 [label="TOTAL <= 185.5\ngini = 0.1\nsamples = 19\nvalue = [18, 1]", fillcolor="#e68844"] ;
411 -> 417 ;
418 [label="gini = 0.0\nsamples = 12\nvalue = [12, 0]", fillcolor="#e58139"] ;
417 -> 418 ;
419 [label="gini = 0.245\nsamples = 7\nvalue = [6, 1]", fillcolor="#e9965a"] ;
417 -> 419 ;
420 [label="TOTAL <= 162.5\ngini = 0.059\nsamples = 66\nvalue = [64, 2]", fillcolor="#e6853f"] ;
408 -> 420 ;
421 [label="gini = 0.0\nsamples = 31\nvalue = [31, 0]", fillcolor="#e58139"] ;
420 -> 421 ;
422 [label="TOTAL <= 171.5\ngini = 0.108\nsamples = 35\nvalue = [33, 2]", fillcolor="#e78945"] ;
420 -> 422 ;
423 [label="TOTAL <= 169.5\ngini = 0.208\nsamples = 17\nvalue = [15, 2]", fillcolor="#e89253"] ;
422 -> 423 ;
424 [label="TOTAL <= 167.0\ngini = 0.117\nsamples = 16\nvalue = [15, 1]", fillcolor="#e78946"] ;
423 -> 424 ;
425 [label="gini = 0.142\nsamples = 13\nvalue = [12, 1]", fillcolor="#e78c49"] ;
424 -> 425 ;
426 [label="gini = 0.0\nsamples = 3\nvalue = [3, 0]", fillcolor="#e58139"] ;
424 -> 426 ;
427 [label="gini = 0.0\nsamples = 1\nvalue = [0, 1]", fillcolor="#399de5"] ;
423 -> 427 ;
428 [label="gini = 0.0\nsamples = 18\nvalue = [18, 0]", fillcolor="#e58139"] ;
422 -> 428 ;
429 [label="gini = 0.0\nsamples = 33\nvalue = [33, 0]", fillcolor="#e58139"] ;
407 -> 429 ;
430 [label="TOTAL <= 227.5\ngini = 0.375\nsamples = 4\nvalue = [3, 1]", fillcolor="#eeab7b"] ;
406 -> 430 ;
431 [label="gini = 0.0\nsamples = 1\nvalue = [0, 1]", fillcolor="#399de5"] ;
430 -> 431 ;
432 [label="gini = 0.0\nsamples = 3\nvalue = [3, 0]", fillcolor="#e58139"] ;
430 -> 432 ;
433 [label="TOTAL <= 243.5\ngini = 0.336\nsamples = 136664\nvalue = [107466, 29198]", fillcolor="#eca36f"] ;
311 -> 433 ;
434 [label="TOTAL <= 236.5\ngini = 0.467\nsamples = 438\nvalue = [275, 163]", fillcolor="#f4ccae"] ;
433 -> 434 ;
435 [label="TM_VISIT <= 0.5\ngini = 0.461\nsamples = 413\nvalue = [264, 149]", fillcolor="#f4c8a9"] ;
434 -> 435 ;
436 [label="CFH_VISIT <= 0.5\ngini = 0.475\nsamples = 222\nvalue = [136, 86]", fillcolor="#f5d1b6"] ;
435 -> 436 ;
437 [label="TOTAL <= 235.5\ngini = 0.469\nsamples = 192\nvalue = [120, 72]", fillcolor="#f5cdb0"] ;
436 -> 437 ;
438 [label="TOTAL <= 234.0\ngini = 0.47\nsamples = 191\nvalue = [119, 72]", fillcolor="#f5cdb1"] ;
437 -> 438 ;
439 [label="gini = 0.469\nsamples = 189\nvalue = [118, 71]", fillcolor="#f5cdb0"] ;
438 -> 439 ;
440 [label="gini = 0.5\nsamples = 2\nvalue = [1, 1]", fillcolor="#ffffff"] ;
438 -> 440 ;
441 [label="gini = 0.0\nsamples = 1\nvalue = [1, 0]", fillcolor="#e58139"] ;
437 -> 441 ;
442 [label="gini = 0.498\nsamples = 30\nvalue = [16, 14]", fillcolor="#fcefe6"] ;
436 -> 442 ;
443 [label="TOTAL <= 235.0\ngini = 0.442\nsamples = 191\nvalue = [128, 63]", fillcolor="#f2bf9a"] ;
435 -> 443 ;
444 [label="CFH_VISIT <= 0.5\ngini = 0.443\nsamples = 190\nvalue = [127, 63]", fillcolor="#f2c09b"] ;
443 -> 444 ;
445 [label="TOTAL <= 233.5\ngini = 0.437\nsamples = 146\nvalue = [99, 47]", fillcolor="#f1bd97"] ;
444 -> 445 ;
446 [label="gini = 0.438\nsamples = 145\nvalue = [98, 47]", fillcolor="#f1bd98"] ;
445 -> 446 ;
447 [label="gini = 0.0\nsamples = 1\nvalue = [1, 0]", fillcolor="#e58139"] ;
445 -> 447 ;
448 [label="TOTAL <= 233.5\ngini = 0.463\nsamples = 44\nvalue = [28, 16]", fillcolor="#f4c9aa"] ;
444 -> 448 ;
449 [label="gini = 0.454\nsamples = 43\nvalue = [28, 15]", fillcolor="#f3c4a3"] ;
448 -> 449 ;
450 [label="gini = 0.0\nsamples = 1\nvalue = [0, 1]", fillcolor="#399de5"] ;
448 -> 450 ;
451 [label="gini = 0.0\nsamples = 1\nvalue = [1, 0]", fillcolor="#e58139"] ;
443 -> 451 ;
452 [label="CFH_VISIT <= 0.5\ngini = 0.493\nsamples = 25\nvalue = [11, 14]", fillcolor="#d5eaf9"] ;
434 -> 452 ;
453 [label="TM_VISIT <= 0.5\ngini = 0.497\nsamples = 13\nvalue = [7, 6]", fillcolor="#fbede3"] ;
452 -> 453 ;
454 [label="TOTAL <= 238.5\ngini = 0.32\nsamples = 5\nvalue = [4, 1]", fillcolor="#eca06a"] ;
453 -> 454 ;
455 [label="gini = 0.444\nsamples = 3\nvalue = [2, 1]", fillcolor="#f2c09c"] ;
454 -> 455 ;
456 [label="gini = 0.0\nsamples = 2\nvalue = [2, 0]", fillcolor="#e58139"] ;
454 -> 456 ;
457 [label="TOTAL <= 239.5\ngini = 0.469\nsamples = 8\nvalue = [3, 5]", fillcolor="#b0d8f5"] ;
453 -> 457 ;
458 [label="TOTAL <= 238.0\ngini = 0.444\nsamples = 3\nvalue = [2, 1]", fillcolor="#f2c09c"] ;
457 -> 458 ;
459 [label="gini = 0.5\nsamples = 2\nvalue = [1, 1]", fillcolor="#ffffff"] ;
458 -> 459 ;
460 [label="gini = 0.0\nsamples = 1\nvalue = [1, 0]", fillcolor="#e58139"] ;
458 -> 460 ;
461 [label="gini = 0.32\nsamples = 5\nvalue = [1, 4]", fillcolor="#6ab6ec"] ;
457 -> 461 ;
462 [label="TM_VISIT <= 0.5\ngini = 0.444\nsamples = 12\nvalue = [4, 8]", fillcolor="#9ccef2"] ;
452 -> 462 ;
463 [label="gini = 0.0\nsamples = 3\nvalue = [0, 3]", fillcolor="#399de5"] ;
462 -> 463 ;
464 [label="TOTAL <= 242.5\ngini = 0.494\nsamples = 9\nvalue = [4, 5]", fillcolor="#d7ebfa"] ;
462 -> 464 ;
465 [label="TOTAL <= 240.5\ngini = 0.5\nsamples = 8\nvalue = [4, 4]", fillcolor="#ffffff"] ;
464 -> 465 ;
466 [label="TOTAL <= 238.0\ngini = 0.49\nsamples = 7\nvalue = [3, 4]", fillcolor="#cee6f8"] ;
465 -> 466 ;
467 [label="gini = 0.444\nsamples = 3\nvalue = [1, 2]", fillcolor="#9ccef2"] ;
466 -> 467 ;
468 [label="gini = 0.5\nsamples = 4\nvalue = [2, 2]", fillcolor="#ffffff"] ;
466 -> 468 ;
469 [label="gini = 0.0\nsamples = 1\nvalue = [1, 0]", fillcolor="#e58139"] ;
465 -> 469 ;
470 [label="gini = 0.0\nsamples = 1\nvalue = [0, 1]", fillcolor="#399de5"] ;
464 -> 470 ;
471 [label="TOTAL <= 338.5\ngini = 0.335\nsamples = 136226\nvalue = [107191, 29035]", fillcolor="#eca36f"] ;
433 -> 471 ;
472 [label="TM_VISIT <= 0.5\ngini = 0.136\nsamples = 654\nvalue = [606, 48]", fillcolor="#e78b49"] ;
471 -> 472 ;
473 [label="TOTAL <= 293.5\ngini = 0.08\nsamples = 312\nvalue = [299, 13]", fillcolor="#e68642"] ;
472 -> 473 ;
474 [label="CFH_VISIT <= 0.5\ngini = 0.043\nsamples = 183\nvalue = [179, 4]", fillcolor="#e6843d"] ;
473 -> 474 ;
475 [label="TOTAL <= 273.5\ngini = 0.025\nsamples = 158\nvalue = [156, 2]", fillcolor="#e5833c"] ;
474 -> 475 ;
476 [label="gini = 0.0\nsamples = 89\nvalue = [89, 0]", fillcolor="#e58139"] ;
475 -> 476 ;
477 [label="TOTAL <= 275.0\ngini = 0.056\nsamples = 69\nvalue = [67, 2]", fillcolor="#e6853f"] ;
475 -> 477 ;
478 [label="gini = 0.32\nsamples = 5\nvalue = [4, 1]", fillcolor="#eca06a"] ;
477 -> 478 ;
479 [label="TOTAL <= 281.5\ngini = 0.031\nsamples = 64\nvalue = [63, 1]", fillcolor="#e5833c"] ;
477 -> 479 ;
480 [label="TOTAL <= 280.5\ngini = 0.067\nsamples = 29\nvalue = [28, 1]", fillcolor="#e68640"] ;
479 -> 480 ;
481 [label="gini = 0.0\nsamples = 4\nvalue = [4, 0]", fillcolor="#e58139"] ;
480 -> 481 ;
482 [label="gini = 0.077\nsamples = 25\nvalue = [24, 1]", fillcolor="#e68641"] ;
480 -> 482 ;
483 [label="gini = 0.0\nsamples = 35\nvalue = [35, 0]", fillcolor="#e58139"] ;
479 -> 483 ;
484 [label="TOTAL <= 277.0\ngini = 0.147\nsamples = 25\nvalue = [23, 2]", fillcolor="#e78c4a"] ;
474 -> 484 ;
485 [label="TOTAL <= 267.5\ngini = 0.188\nsamples = 19\nvalue = [17, 2]", fillcolor="#e89050"] ;
484 -> 485 ;
486 [label="TOTAL <= 254.0\ngini = 0.117\nsamples = 16\nvalue = [15, 1]", fillcolor="#e78946"] ;
485 -> 486 ;
487 [label="TOTAL <= 249.0\ngini = 0.198\nsamples = 9\nvalue = [8, 1]", fillcolor="#e89152"] ;
486 -> 487 ;
488 [label="gini = 0.0\nsamples = 2\nvalue = [2, 0]", fillcolor="#e58139"] ;
487 -> 488 ;
489 [label="gini = 0.245\nsamples = 7\nvalue = [6, 1]", fillcolor="#e9965a"] ;
487 -> 489 ;
490 [label="gini = 0.0\nsamples = 7\nvalue = [7, 0]", fillcolor="#e58139"] ;
486 -> 490 ;
491 [label="gini = 0.444\nsamples = 3\nvalue = [2, 1]", fillcolor="#f2c09c"] ;
485 -> 491 ;
492 [label="gini = 0.0\nsamples = 6\nvalue = [6, 0]", fillcolor="#e58139"] ;
484 -> 492 ;
493 [label="TOTAL <= 296.0\ngini = 0.13\nsamples = 129\nvalue = [120, 9]", fillcolor="#e78a48"] ;
473 -> 493 ;
494 [label="gini = 0.444\nsamples = 3\nvalue = [2, 1]", fillcolor="#f2c09c"] ;
493 -> 494 ;
495 [label="TOTAL <= 323.5\ngini = 0.119\nsamples = 126\nvalue = [118, 8]", fillcolor="#e78a46"] ;
493 -> 495 ;
496 [label="TOTAL <= 322.5\ngini = 0.156\nsamples = 82\nvalue = [75, 7]", fillcolor="#e78d4b"] ;
495 -> 496 ;
497 [label="TOTAL <= 302.5\ngini = 0.14\nsamples = 79\nvalue = [73, 6]", fillcolor="#e78b49"] ;
496 -> 497 ;
498 [label="CFH_VISIT <= 0.5\ngini = 0.18\nsamples = 30\nvalue = [27, 3]", fillcolor="#e88f4f"] ;
497 -> 498 ;
499 [label="TOTAL <= 301.5\ngini = 0.204\nsamples = 26\nvalue = [23, 3]", fillcolor="#e89153"] ;
498 -> 499 ;
500 [label="gini = 0.0\nsamples = 3\nvalue = [3, 0]", fillcolor="#e58139"] ;
499 -> 500 ;
501 [label="gini = 0.227\nsamples = 23\nvalue = [20, 3]", fillcolor="#e99457"] ;
499 -> 501 ;
502 [label="gini = 0.0\nsamples = 4\nvalue = [4, 0]", fillcolor="#e58139"] ;
498 -> 502 ;
503 [label="TOTAL <= 315.0\ngini = 0.115\nsamples = 49\nvalue = [46, 3]", fillcolor="#e78946"] ;
497 -> 503 ;
504 [label="gini = 0.0\nsamples = 19\nvalue = [19, 0]", fillcolor="#e58139"] ;
503 -> 504 ;
505 [label="CFH_VISIT <= 0.5\ngini = 0.18\nsamples = 30\nvalue = [27, 3]", fillcolor="#e88f4f"] ;
503 -> 505 ;
506 [label="TOTAL <= 318.5\ngini = 0.137\nsamples = 27\nvalue = [25, 2]", fillcolor="#e78b49"] ;
505 -> 506 ;
507 [label="gini = 0.0\nsamples = 3\nvalue = [3, 0]", fillcolor="#e58139"] ;
506 -> 507 ;
508 [label="TOTAL <= 321.5\ngini = 0.153\nsamples = 24\nvalue = [22, 2]", fillcolor="#e78c4b"] ;
506 -> 508 ;
509 [label="gini = 0.159\nsamples = 23\nvalue = [21, 2]", fillcolor="#e78d4c"] ;
508 -> 509 ;
510 [label="gini = 0.0\nsamples = 1\nvalue = [1, 0]", fillcolor="#e58139"] ;
508 -> 510 ;
511 [label="TOTAL <= 318.0\ngini = 0.444\nsamples = 3\nvalue = [2, 1]", fillcolor="#f2c09c"] ;
505 -> 511 ;
512 [label="gini = 0.0\nsamples = 1\nvalue = [0, 1]", fillcolor="#399de5"] ;
511 -> 512 ;
513 [label="gini = 0.0\nsamples = 2\nvalue = [2, 0]", fillcolor="#e58139"] ;
511 -> 513 ;
514 [label="gini = 0.444\nsamples = 3\nvalue = [2, 1]", fillcolor="#f2c09c"] ;
496 -> 514 ;
515 [label="CFH_VISIT <= 0.5\ngini = 0.044\nsamples = 44\nvalue = [43, 1]", fillcolor="#e6843e"] ;
495 -> 515 ;
516 [label="TOTAL <= 331.0\ngini = 0.054\nsamples = 36\nvalue = [35, 1]", fillcolor="#e6853f"] ;
515 -> 516 ;
517 [label="TOTAL <= 329.5\ngini = 0.067\nsamples = 29\nvalue = [28, 1]", fillcolor="#e68640"] ;
516 -> 517 ;
518 [label="gini = 0.0\nsamples = 5\nvalue = [5, 0]", fillcolor="#e58139"] ;
517 -> 518 ;
519 [label="gini = 0.08\nsamples = 24\nvalue = [23, 1]", fillcolor="#e68642"] ;
517 -> 519 ;
520 [label="gini = 0.0\nsamples = 7\nvalue = [7, 0]", fillcolor="#e58139"] ;
516 -> 520 ;
521 [label="gini = 0.0\nsamples = 8\nvalue = [8, 0]", fillcolor="#e58139"] ;
515 -> 521 ;
522 [label="TOTAL <= 316.5\ngini = 0.184\nsamples = 342\nvalue = [307, 35]", fillcolor="#e88f50"] ;
472 -> 522 ;
523 [label="TOTAL <= 245.5\ngini = 0.208\nsamples = 271\nvalue = [239, 32]", fillcolor="#e89254"] ;
522 -> 523 ;
524 [label="CFH_VISIT <= 0.5\ngini = 0.053\nsamples = 37\nvalue = [36, 1]", fillcolor="#e6843e"] ;
523 -> 524 ;
525 [label="TOTAL <= 244.5\ngini = 0.059\nsamples = 33\nvalue = [32, 1]", fillcolor="#e6853f"] ;
524 -> 525 ;
526 [label="gini = 0.0\nsamples = 1\nvalue = [1, 0]", fillcolor="#e58139"] ;
525 -> 526 ;
527 [label="gini = 0.061\nsamples = 32\nvalue = [31, 1]", fillcolor="#e6853f"] ;
525 -> 527 ;
528 [label="gini = 0.0\nsamples = 4\nvalue = [4, 0]", fillcolor="#e58139"] ;
524 -> 528 ;
529 [label="TOTAL <= 246.5\ngini = 0.23\nsamples = 234\nvalue = [203, 31]", fillcolor="#e99457"] ;
523 -> 529 ;
530 [label="gini = 0.0\nsamples = 1\nvalue = [0, 1]", fillcolor="#399de5"] ;
529 -> 530 ;
531 [label="TOTAL <= 303.5\ngini = 0.224\nsamples = 233\nvalue = [203, 30]", fillcolor="#e99456"] ;
529 -> 531 ;
532 [label="TOTAL <= 293.5\ngini = 0.209\nsamples = 202\nvalue = [178, 24]", fillcolor="#e99254"] ;
531 -> 532 ;
533 [label="TOTAL <= 292.5\ngini = 0.233\nsamples = 171\nvalue = [148, 23]", fillcolor="#e99558"] ;
532 -> 533 ;
534 [label="TOTAL <= 291.0\ngini = 0.225\nsamples = 170\nvalue = [148, 22]", fillcolor="#e99456"] ;
533 -> 534 ;
535 [label="TOTAL <= 273.5\ngini = 0.2\nsamples = 142\nvalue = [126, 16]", fillcolor="#e89152"] ;
534 -> 535 ;
536 [label="TOTAL <= 264.0\ngini = 0.227\nsamples = 107\nvalue = [93, 14]", fillcolor="#e99457"] ;
535 -> 536 ;
537 [label="TOTAL <= 252.5\ngini = 0.188\nsamples = 76\nvalue = [68, 8]", fillcolor="#e89050"] ;
536 -> 537 ;
538 [label="gini = 0.0\nsamples = 7\nvalue = [7, 0]", fillcolor="#e58139"] ;
537 -> 538 ;
539 [label="TOTAL <= 253.5\ngini = 0.205\nsamples = 69\nvalue = [61, 8]", fillcolor="#e89253"] ;
537 -> 539 ;
540 [label="CFH_VISIT <= 0.5\ngini = 0.255\nsamples = 20\nvalue = [17, 3]", fillcolor="#ea975c"] ;
539 -> 540 ;
541 [label="gini = 0.117\nsamples = 16\nvalue = [15, 1]", fillcolor="#e78946"] ;
540 -> 541 ;
542 [label="gini = 0.5\nsamples = 4\nvalue = [2, 2]", fillcolor="#ffffff"] ;
540 -> 542 ;
543 [label="CFH_VISIT <= 0.5\ngini = 0.183\nsamples = 49\nvalue = [44, 5]", fillcolor="#e88f50"] ;
539 -> 543 ;
544 [label="TOTAL <= 260.5\ngini = 0.257\nsamples = 33\nvalue = [28, 5]", fillcolor="#ea985c"] ;
543 -> 544 ;
545 [label="gini = 0.0\nsamples = 3\nvalue = [3, 0]", fillcolor="#e58139"] ;
544 -> 545 ;
546 [label="gini = 0.278\nsamples = 30\nvalue = [25, 5]", fillcolor="#ea9a61"] ;
544 -> 546 ;
547 [label="gini = 0.0\nsamples = 16\nvalue = [16, 0]", fillcolor="#e58139"] ;
543 -> 547 ;
548 [label="TOTAL <= 265.5\ngini = 0.312\nsamples = 31\nvalue = [25, 6]", fillcolor="#eb9f69"] ;
536 -> 548 ;
549 [label="gini = 0.0\nsamples = 1\nvalue = [0, 1]", fillcolor="#399de5"] ;
548 -> 549 ;
550 [label="CFH_VISIT <= 0.5\ngini = 0.278\nsamples = 30\nvalue = [25, 5]", fillcolor="#ea9a61"] ;
548 -> 550 ;
551 [label="TOTAL <= 267.5\ngini = 0.245\nsamples = 21\nvalue = [18, 3]", fillcolor="#e9965a"] ;
550 -> 551 ;
552 [label="gini = 0.444\nsamples = 3\nvalue = [2, 1]", fillcolor="#f2c09c"] ;
551 -> 552 ;
553 [label="TOTAL <= 272.0\ngini = 0.198\nsamples = 18\nvalue = [16, 2]", fillcolor="#e89152"] ;
551 -> 553 ;
554 [label="gini = 0.0\nsamples = 4\nvalue = [4, 0]", fillcolor="#e58139"] ;
553 -> 554 ;
555 [label="gini = 0.245\nsamples = 14\nvalue = [12, 2]", fillcolor="#e9965a"] ;
553 -> 555 ;
556 [label="TOTAL <= 270.0\ngini = 0.346\nsamples = 9\nvalue = [7, 2]", fillcolor="#eca572"] ;
550 -> 556 ;
557 [label="gini = 0.0\nsamples = 2\nvalue = [2, 0]", fillcolor="#e58139"] ;
556 -> 557 ;
558 [label="gini = 0.408\nsamples = 7\nvalue = [5, 2]", fillcolor="#efb388"] ;
556 -> 558 ;
559 [label="CFH_VISIT <= 0.5\ngini = 0.108\nsamples = 35\nvalue = [33, 2]", fillcolor="#e78945"] ;
535 -> 559 ;
560 [label="gini = 0.0\nsamples = 23\nvalue = [23, 0]", fillcolor="#e58139"] ;
559 -> 560 ;
561 [label="TOTAL <= 282.5\ngini = 0.278\nsamples = 12\nvalue = [10, 2]", fillcolor="#ea9a61"] ;
559 -> 561 ;
562 [label="TOTAL <= 278.0\ngini = 0.375\nsamples = 8\nvalue = [6, 2]", fillcolor="#eeab7b"] ;
561 -> 562 ;
563 [label="gini = 0.0\nsamples = 2\nvalue = [2, 0]", fillcolor="#e58139"] ;
562 -> 563 ;
564 [label="gini = 0.444\nsamples = 6\nvalue = [4, 2]", fillcolor="#f2c09c"] ;
562 -> 564 ;
565 [label="gini = 0.0\nsamples = 4\nvalue = [4, 0]", fillcolor="#e58139"] ;
561 -> 565 ;
566 [label="CFH_VISIT <= 0.5\ngini = 0.337\nsamples = 28\nvalue = [22, 6]", fillcolor="#eca36f"] ;
534 -> 566 ;
567 [label="gini = 0.298\nsamples = 22\nvalue = [18, 4]", fillcolor="#eb9d65"] ;
566 -> 567 ;
568 [label="gini = 0.444\nsamples = 6\nvalue = [4, 2]", fillcolor="#f2c09c"] ;
566 -> 568 ;
569 [label="gini = 0.0\nsamples = 1\nvalue = [0, 1]", fillcolor="#399de5"] ;
533 -> 569 ;
570 [label="TOTAL <= 301.0\ngini = 0.062\nsamples = 31\nvalue = [30, 1]", fillcolor="#e68540"] ;
532 -> 570 ;
571 [label="gini = 0.0\nsamples = 5\nvalue = [5, 0]", fillcolor="#e58139"] ;
570 -> 571 ;
572 [label="CFH_VISIT <= 0.5\ngini = 0.074\nsamples = 26\nvalue = [25, 1]", fillcolor="#e68641"] ;
570 -> 572 ;
573 [label="TOTAL <= 302.5\ngini = 0.083\nsamples = 23\nvalue = [22, 1]", fillcolor="#e68742"] ;
572 -> 573 ;
574 [label="gini = 0.087\nsamples = 22\nvalue = [21, 1]", fillcolor="#e68742"] ;
573 -> 574 ;
575 [label="gini = 0.0\nsamples = 1\nvalue = [1, 0]", fillcolor="#e58139"] ;
573 -> 575 ;
576 [label="gini = 0.0\nsamples = 3\nvalue = [3, 0]", fillcolor="#e58139"] ;
572 -> 576 ;
577 [label="CFH_VISIT <= 0.5\ngini = 0.312\nsamples = 31\nvalue = [25, 6]", fillcolor="#eb9f69"] ;
531 -> 577 ;
578 [label="TOTAL <= 306.5\ngini = 0.337\nsamples = 28\nvalue = [22, 6]", fillcolor="#eca36f"] ;
577 -> 578 ;
579 [label="TOTAL <= 305.0\ngini = 0.408\nsamples = 7\nvalue = [5, 2]", fillcolor="#efb388"] ;
578 -> 579 ;
580 [label="gini = 0.32\nsamples = 5\nvalue = [4, 1]", fillcolor="#eca06a"] ;
579 -> 580 ;
581 [label="gini = 0.5\nsamples = 2\nvalue = [1, 1]", fillcolor="#ffffff"] ;
579 -> 581 ;
582 [label="TOTAL <= 310.5\ngini = 0.308\nsamples = 21\nvalue = [17, 4]", fillcolor="#eb9f68"] ;
578 -> 582 ;
583 [label="gini = 0.0\nsamples = 3\nvalue = [3, 0]", fillcolor="#e58139"] ;
582 -> 583 ;
584 [label="TOTAL <= 312.0\ngini = 0.346\nsamples = 18\nvalue = [14, 4]", fillcolor="#eca572"] ;
582 -> 584 ;
585 [label="gini = 0.397\nsamples = 11\nvalue = [8, 3]", fillcolor="#efb083"] ;
584 -> 585 ;
586 [label="TOTAL <= 315.5\ngini = 0.245\nsamples = 7\nvalue = [6, 1]", fillcolor="#e9965a"] ;
584 -> 586 ;
587 [label="gini = 0.0\nsamples = 3\nvalue = [3, 0]", fillcolor="#e58139"] ;
586 -> 587 ;
588 [label="gini = 0.375\nsamples = 4\nvalue = [3, 1]", fillcolor="#eeab7b"] ;
586 -> 588 ;
589 [label="gini = 0.0\nsamples = 3\nvalue = [3, 0]", fillcolor="#e58139"] ;
577 -> 589 ;
590 [label="CFH_VISIT <= 0.5\ngini = 0.081\nsamples = 71\nvalue = [68, 3]", fillcolor="#e68742"] ;
522 -> 590 ;
591 [label="gini = 0.0\nsamples = 50\nvalue = [50, 0]", fillcolor="#e58139"] ;
590 -> 591 ;
592 [label="TOTAL <= 329.0\ngini = 0.245\nsamples = 21\nvalue = [18, 3]", fillcolor="#e9965a"] ;
590 -> 592 ;
593 [label="TOTAL <= 320.0\ngini = 0.153\nsamples = 12\nvalue = [11, 1]", fillcolor="#e78c4b"] ;
592 -> 593 ;
594 [label="gini = 0.0\nsamples = 3\nvalue = [3, 0]", fillcolor="#e58139"] ;
593 -> 594 ;
595 [label="TOTAL <= 322.0\ngini = 0.198\nsamples = 9\nvalue = [8, 1]", fillcolor="#e89152"] ;
593 -> 595 ;
596 [label="gini = 0.278\nsamples = 6\nvalue = [5, 1]", fillcolor="#ea9a61"] ;
595 -> 596 ;
597 [label="gini = 0.0\nsamples = 3\nvalue = [3, 0]", fillcolor="#e58139"] ;
595 -> 597 ;
598 [label="TOTAL <= 330.5\ngini = 0.346\nsamples = 9\nvalue = [7, 2]", fillcolor="#eca572"] ;
592 -> 598 ;
599 [label="gini = 0.444\nsamples = 6\nvalue = [4, 2]", fillcolor="#f2c09c"] ;
598 -> 599 ;
600 [label="gini = 0.0\nsamples = 3\nvalue = [3, 0]", fillcolor="#e58139"] ;
598 -> 600 ;
601 [label="TOTAL <= 344.5\ngini = 0.336\nsamples = 135572\nvalue = [106585, 28987]", fillcolor="#eca36f"] ;
471 -> 601 ;
602 [label="TOTAL <= 342.5\ngini = 0.489\nsamples = 295\nvalue = [126, 169]", fillcolor="#cde6f8"] ;
601 -> 602 ;
603 [label="CFH_VISIT <= 0.5\ngini = 0.491\nsamples = 290\nvalue = [126, 164]", fillcolor="#d1e8f9"] ;
602 -> 603 ;
604 [label="TOTAL <= 341.5\ngini = 0.486\nsamples = 233\nvalue = [97, 136]", fillcolor="#c6e3f8"] ;
603 -> 604 ;
605 [label="TM_VISIT <= 0.5\ngini = 0.485\nsamples = 232\nvalue = [96, 136]", fillcolor="#c5e2f7"] ;
604 -> 605 ;
606 [label="TOTAL <= 339.5\ngini = 0.493\nsamples = 118\nvalue = [52, 66]", fillcolor="#d5eaf9"] ;
605 -> 606 ;
607 [label="gini = 0.49\nsamples = 116\nvalue = [50, 66]", fillcolor="#cfe7f9"] ;
606 -> 607 ;
608 [label="gini = 0.0\nsamples = 2\nvalue = [2, 0]", fillcolor="#e58139"] ;
606 -> 608 ;
609 [label="TOTAL <= 340.0\ngini = 0.474\nsamples = 114\nvalue = [44, 70]", fillcolor="#b5dbf5"] ;
605 -> 609 ;
610 [label="gini = 0.478\nsamples = 106\nvalue = [42, 64]", fillcolor="#bbddf6"] ;
609 -> 610 ;
611 [label="gini = 0.375\nsamples = 8\nvalue = [2, 6]", fillcolor="#7bbeee"] ;
609 -> 611 ;
612 [label="gini = 0.0\nsamples = 1\nvalue = [1, 0]", fillcolor="#e58139"] ;
604 -> 612 ;
613 [label="TM_VISIT <= 0.5\ngini = 0.5\nsamples = 57\nvalue = [29, 28]", fillcolor="#fefbf8"] ;
603 -> 613 ;
614 [label="TOTAL <= 340.0\ngini = 0.494\nsamples = 18\nvalue = [10, 8]", fillcolor="#fae6d7"] ;
613 -> 614 ;
615 [label="gini = 0.5\nsamples = 16\nvalue = [8, 8]", fillcolor="#ffffff"] ;
614 -> 615 ;
616 [label="gini = 0.0\nsamples = 2\nvalue = [2, 0]", fillcolor="#e58139"] ;
614 -> 616 ;
617 [label="TOTAL <= 341.5\ngini = 0.5\nsamples = 39\nvalue = [19, 20]", fillcolor="#f5fafe"] ;
613 -> 617 ;
618 [label="TOTAL <= 340.0\ngini = 0.5\nsamples = 38\nvalue = [19, 19]", fillcolor="#ffffff"] ;
617 -> 618 ;
619 [label="gini = 0.5\nsamples = 36\nvalue = [18, 18]", fillcolor="#ffffff"] ;
618 -> 619 ;
620 [label="gini = 0.5\nsamples = 2\nvalue = [1, 1]", fillcolor="#ffffff"] ;
618 -> 620 ;
621 [label="gini = 0.0\nsamples = 1\nvalue = [0, 1]", fillcolor="#399de5"] ;
617 -> 621 ;
622 [label="gini = 0.0\nsamples = 5\nvalue = [0, 5]", fillcolor="#399de5"] ;
602 -> 622 ;
623 [label="TOTAL <= 430.5\ngini = 0.335\nsamples = 135277\nvalue = [106459, 28818]", fillcolor="#eca36f"] ;
601 -> 623 ;
624 [label="TOTAL <= 352.5\ngini = 0.116\nsamples = 648\nvalue = [608, 40]", fillcolor="#e78946"] ;
623 -> 624 ;
625 [label="TM_VISIT <= 0.5\ngini = 0.067\nsamples = 115\nvalue = [111, 4]", fillcolor="#e68640"] ;
624 -> 625 ;
626 [label="CFH_VISIT <= 0.5\ngini = 0.123\nsamples = 61\nvalue = [57, 4]", fillcolor="#e78a47"] ;
625 -> 626 ;
627 [label="TOTAL <= 345.5\ngini = 0.135\nsamples = 55\nvalue = [51, 4]", fillcolor="#e78b49"] ;
626 -> 627 ;
628 [label="gini = 0.157\nsamples = 35\nvalue = [32, 3]", fillcolor="#e78d4c"] ;
627 -> 628 ;
629 [label="TOTAL <= 349.5\ngini = 0.095\nsamples = 20\nvalue = [19, 1]", fillcolor="#e68843"] ;
627 -> 629 ;
630 [label="gini = 0.0\nsamples = 2\nvalue = [2, 0]", fillcolor="#e58139"] ;
629 -> 630 ;
631 [label="gini = 0.105\nsamples = 18\nvalue = [17, 1]", fillcolor="#e78845"] ;
629 -> 631 ;
632 [label="gini = 0.0\nsamples = 6\nvalue = [6, 0]", fillcolor="#e58139"] ;
626 -> 632 ;
633 [label="gini = 0.0\nsamples = 54\nvalue = [54, 0]", fillcolor="#e58139"] ;
625 -> 633 ;
634 [label="TOTAL <= 353.5\ngini = 0.126\nsamples = 533\nvalue = [497, 36]", fillcolor="#e78a47"] ;
624 -> 634 ;
635 [label="gini = 0.0\nsamples = 1\nvalue = [0, 1]", fillcolor="#399de5"] ;
634 -> 635 ;
636 [label="CFH_VISIT <= 0.5\ngini = 0.123\nsamples = 532\nvalue = [497, 35]", fillcolor="#e78a47"] ;
634 -> 636 ;
637 [label="TOTAL <= 429.5\ngini = 0.113\nsamples = 449\nvalue = [422, 27]", fillcolor="#e78946"] ;
636 -> 637 ;
638 [label="TOTAL <= 420.0\ngini = 0.103\nsamples = 405\nvalue = [383, 22]", fillcolor="#e68844"] ;
637 -> 638 ;
639 [label="TOTAL <= 416.5\ngini = 0.116\nsamples = 356\nvalue = [334, 22]", fillcolor="#e78946"] ;
638 -> 639 ;
640 [label="TM_VISIT <= 0.5\ngini = 0.103\nsamples = 350\nvalue = [331, 19]", fillcolor="#e68844"] ;
639 -> 640 ;
641 [label="TOTAL <= 393.5\ngini = 0.071\nsamples = 189\nvalue = [182, 7]", fillcolor="#e68641"] ;
640 -> 641 ;
642 [label="TOTAL <= 360.0\ngini = 0.106\nsamples = 125\nvalue = [118, 7]", fillcolor="#e78845"] ;
641 -> 642 ;
643 [label="TOTAL <= 358.5\ngini = 0.165\nsamples = 33\nvalue = [30, 3]", fillcolor="#e88e4d"] ;
642 -> 643 ;
644 [label="gini = 0.0\nsamples = 2\nvalue = [2, 0]", fillcolor="#e58139"] ;
643 -> 644 ;
645 [label="gini = 0.175\nsamples = 31\nvalue = [28, 3]", fillcolor="#e88e4e"] ;
643 -> 645 ;
646 [label="TOTAL <= 384.0\ngini = 0.083\nsamples = 92\nvalue = [88, 4]", fillcolor="#e68742"] ;
642 -> 646 ;
647 [label="gini = 0.0\nsamples = 34\nvalue = [34, 0]", fillcolor="#e58139"] ;
646 -> 647 ;
648 [label="TOTAL <= 385.5\ngini = 0.128\nsamples = 58\nvalue = [54, 4]", fillcolor="#e78a48"] ;
646 -> 648 ;
649 [label="gini = 0.175\nsamples = 31\nvalue = [28, 3]", fillcolor="#e88e4e"] ;
648 -> 649 ;
650 [label="TOTAL <= 392.0\ngini = 0.071\nsamples = 27\nvalue = [26, 1]", fillcolor="#e68641"] ;
648 -> 650 ;
651 [label="gini = 0.0\nsamples = 9\nvalue = [9, 0]", fillcolor="#e58139"] ;
650 -> 651 ;
652 [label="gini = 0.105\nsamples = 18\nvalue = [17, 1]", fillcolor="#e78845"] ;
650 -> 652 ;
653 [label="gini = 0.0\nsamples = 64\nvalue = [64, 0]", fillcolor="#e58139"] ;
641 -> 653 ;
654 [label="TOTAL <= 393.5\ngini = 0.138\nsamples = 161\nvalue = [149, 12]", fillcolor="#e78b49"] ;
640 -> 654 ;
655 [label="TOTAL <= 385.5\ngini = 0.078\nsamples = 98\nvalue = [94, 4]", fillcolor="#e68641"] ;
654 -> 655 ;
656 [label="TOTAL <= 383.0\ngini = 0.098\nsamples = 77\nvalue = [73, 4]", fillcolor="#e68844"] ;
655 -> 656 ;
657 [label="TOTAL <= 370.5\ngini = 0.064\nsamples = 60\nvalue = [58, 2]", fillcolor="#e68540"] ;
656 -> 657 ;
658 [label="TOTAL <= 368.5\ngini = 0.075\nsamples = 51\nvalue = [49, 2]", fillcolor="#e68641"] ;
657 -> 658 ;
659 [label="TOTAL <= 359.5\ngini = 0.054\nsamples = 36\nvalue = [35, 1]", fillcolor="#e6853f"] ;
658 -> 659 ;
660 [label="TOTAL <= 358.0\ngini = 0.064\nsamples = 30\nvalue = [29, 1]", fillcolor="#e68540"] ;
659 -> 660 ;
661 [label="gini = 0.0\nsamples = 2\nvalue = [2, 0]", fillcolor="#e58139"] ;
660 -> 661 ;
662 [label="gini = 0.069\nsamples = 28\nvalue = [27, 1]", fillcolor="#e68640"] ;
660 -> 662 ;
663 [label="gini = 0.0\nsamples = 6\nvalue = [6, 0]", fillcolor="#e58139"] ;
659 -> 663 ;
664 [label="gini = 0.124\nsamples = 15\nvalue = [14, 1]", fillcolor="#e78a47"] ;
658 -> 664 ;
665 [label="gini = 0.0\nsamples = 9\nvalue = [9, 0]", fillcolor="#e58139"] ;
657 -> 665 ;
666 [label="gini = 0.208\nsamples = 17\nvalue = [15, 2]", fillcolor="#e89253"] ;
656 -> 666 ;
667 [label="gini = 0.0\nsamples = 21\nvalue = [21, 0]", fillcolor="#e58139"] ;
655 -> 667 ;
668 [label="TOTAL <= 407.5\ngini = 0.222\nsamples = 63\nvalue = [55, 8]", fillcolor="#e99356"] ;
654 -> 668 ;
669 [label="TOTAL <= 405.5\ngini = 0.266\nsamples = 38\nvalue = [32, 6]", fillcolor="#ea995e"] ;
668 -> 669 ;
670 [label="TOTAL <= 396.0\ngini = 0.234\nsamples = 37\nvalue = [32, 5]", fillcolor="#e99558"] ;
669 -> 670 ;
671 [label="TOTAL <= 394.5\ngini = 0.32\nsamples = 10\nvalue = [8, 2]", fillcolor="#eca06a"] ;
670 -> 671 ;
672 [label="gini = 0.32\nsamples = 5\nvalue = [4, 1]", fillcolor="#eca06a"] ;
671 -> 672 ;
673 [label="gini = 0.32\nsamples = 5\nvalue = [4, 1]", fillcolor="#eca06a"] ;
671 -> 673 ;
674 [label="TOTAL <= 400.5\ngini = 0.198\nsamples = 27\nvalue = [24, 3]", fillcolor="#e89152"] ;
670 -> 674 ;
675 [label="gini = 0.0\nsamples = 3\nvalue = [3, 0]", fillcolor="#e58139"] ;
674 -> 675 ;
676 [label="TOTAL <= 403.5\ngini = 0.219\nsamples = 24\nvalue = [21, 3]", fillcolor="#e99355"] ;
674 -> 676 ;
677 [label="gini = 0.227\nsamples = 23\nvalue = [20, 3]", fillcolor="#e99457"] ;
676 -> 677 ;
678 [label="gini = 0.0\nsamples = 1\nvalue = [1, 0]", fillcolor="#e58139"] ;
676 -> 678 ;
679 [label="gini = 0.0\nsamples = 1\nvalue = [0, 1]", fillcolor="#399de5"] ;
669 -> 679 ;
680 [label="TOTAL <= 412.5\ngini = 0.147\nsamples = 25\nvalue = [23, 2]", fillcolor="#e78c4a"] ;
668 -> 680 ;
681 [label="gini = 0.0\nsamples = 2\nvalue = [2, 0]", fillcolor="#e58139"] ;
680 -> 681 ;
682 [label="TOTAL <= 413.5\ngini = 0.159\nsamples = 23\nvalue = [21, 2]", fillcolor="#e78d4c"] ;
680 -> 682 ;
683 [label="gini = 0.165\nsamples = 22\nvalue = [20, 2]", fillcolor="#e88e4d"] ;
682 -> 683 ;
684 [label="gini = 0.0\nsamples = 1\nvalue = [1, 0]", fillcolor="#e58139"] ;
682 -> 684 ;
685 [label="TOTAL <= 417.5\ngini = 0.5\nsamples = 6\nvalue = [3, 3]", fillcolor="#ffffff"] ;
639 -> 685 ;
686 [label="gini = 0.444\nsamples = 3\nvalue = [1, 2]", fillcolor="#9ccef2"] ;
685 -> 686 ;
687 [label="TOTAL <= 418.5\ngini = 0.444\nsamples = 3\nvalue = [2, 1]", fillcolor="#f2c09c"] ;
685 -> 687 ;
688 [label="gini = 0.0\nsamples = 1\nvalue = [1, 0]", fillcolor="#e58139"] ;
687 -> 688 ;
689 [label="gini = 0.5\nsamples = 2\nvalue = [1, 1]", fillcolor="#ffffff"] ;
687 -> 689 ;
690 [label="gini = 0.0\nsamples = 49\nvalue = [49, 0]", fillcolor="#e58139"] ;
638 -> 690 ;
691 [label="TM_VISIT <= 0.5\ngini = 0.201\nsamples = 44\nvalue = [39, 5]", fillcolor="#e89152"] ;
637 -> 691 ;
692 [label="gini = 0.18\nsamples = 20\nvalue = [18, 2]", fillcolor="#e88f4f"] ;
691 -> 692 ;
693 [label="gini = 0.219\nsamples = 24\nvalue = [21, 3]", fillcolor="#e99355"] ;
691 -> 693 ;
694 [label="TOTAL <= 386.5\ngini = 0.174\nsamples = 83\nvalue = [75, 8]", fillcolor="#e88e4e"] ;
636 -> 694 ;
695 [label="TOTAL <= 385.5\ngini = 0.257\nsamples = 33\nvalue = [28, 5]", fillcolor="#ea985c"] ;
694 -> 695 ;
696 [label="TOTAL <= 384.5\ngini = 0.225\nsamples = 31\nvalue = [27, 4]", fillcolor="#e99456"] ;
695 -> 696 ;
697 [label="TOTAL <= 374.5\ngini = 0.204\nsamples = 26\nvalue = [23, 3]", fillcolor="#e89153"] ;
696 -> 697 ;
698 [label="TOTAL <= 371.5\ngini = 0.227\nsamples = 23\nvalue = [20, 3]", fillcolor="#e99457"] ;
697 -> 698 ;
699 [label="TM_VISIT <= 0.5\ngini = 0.188\nsamples = 19\nvalue = [17, 2]", fillcolor="#e89050"] ;
698 -> 699 ;
700 [label="gini = 0.0\nsamples = 5\nvalue = [5, 0]", fillcolor="#e58139"] ;
699 -> 700 ;
701 [label="TOTAL <= 356.5\ngini = 0.245\nsamples = 14\nvalue = [12, 2]", fillcolor="#e9965a"] ;
699 -> 701 ;
702 [label="gini = 0.0\nsamples = 1\nvalue = [1, 0]", fillcolor="#e58139"] ;
701 -> 702 ;
703 [label="TOTAL <= 364.5\ngini = 0.26\nsamples = 13\nvalue = [11, 2]", fillcolor="#ea985d"] ;
701 -> 703 ;
704 [label="gini = 0.278\nsamples = 6\nvalue = [5, 1]", fillcolor="#ea9a61"] ;
703 -> 704 ;
705 [label="gini = 0.245\nsamples = 7\nvalue = [6, 1]", fillcolor="#e9965a"] ;
703 -> 705 ;
706 [label="TM_VISIT <= 0.5\ngini = 0.375\nsamples = 4\nvalue = [3, 1]", fillcolor="#eeab7b"] ;
698 -> 706 ;
707 [label="gini = 0.0\nsamples = 1\nvalue = [0, 1]", fillcolor="#399de5"] ;
706 -> 707 ;
708 [label="gini = 0.0\nsamples = 3\nvalue = [3, 0]", fillcolor="#e58139"] ;
706 -> 708 ;
709 [label="gini = 0.0\nsamples = 3\nvalue = [3, 0]", fillcolor="#e58139"] ;
697 -> 709 ;
710 [label="TM_VISIT <= 0.5\ngini = 0.32\nsamples = 5\nvalue = [4, 1]", fillcolor="#eca06a"] ;
696 -> 710 ;
711 [label="gini = 0.0\nsamples = 1\nvalue = [1, 0]", fillcolor="#e58139"] ;
710 -> 711 ;
712 [label="gini = 0.375\nsamples = 4\nvalue = [3, 1]", fillcolor="#eeab7b"] ;
710 -> 712 ;
713 [label="TM_VISIT <= 0.5\ngini = 0.5\nsamples = 2\nvalue = [1, 1]", fillcolor="#ffffff"] ;
695 -> 713 ;
714 [label="gini = 0.0\nsamples = 1\nvalue = [0, 1]", fillcolor="#399de5"] ;
713 -> 714 ;
715 [label="gini = 0.0\nsamples = 1\nvalue = [1, 0]", fillcolor="#e58139"] ;
713 -> 715 ;
716 [label="TOTAL <= 397.5\ngini = 0.113\nsamples = 50\nvalue = [47, 3]", fillcolor="#e78946"] ;
694 -> 716 ;
717 [label="gini = 0.0\nsamples = 10\nvalue = [10, 0]", fillcolor="#e58139"] ;
716 -> 717 ;
718 [label="TOTAL <= 415.0\ngini = 0.139\nsamples = 40\nvalue = [37, 3]", fillcolor="#e78b49"] ;
716 -> 718 ;
719 [label="TM_VISIT <= 0.5\ngini = 0.231\nsamples = 15\nvalue = [13, 2]", fillcolor="#e99457"] ;
718 -> 719 ;
720 [label="gini = 0.0\nsamples = 8\nvalue = [8, 0]", fillcolor="#e58139"] ;
719 -> 720 ;
721 [label="TOTAL <= 410.0\ngini = 0.408\nsamples = 7\nvalue = [5, 2]", fillcolor="#efb388"] ;
719 -> 721 ;
722 [label="TOTAL <= 404.0\ngini = 0.32\nsamples = 5\nvalue = [4, 1]", fillcolor="#eca06a"] ;
721 -> 722 ;
723 [label="gini = 0.444\nsamples = 3\nvalue = [2, 1]", fillcolor="#f2c09c"] ;
722 -> 723 ;
724 [label="gini = 0.0\nsamples = 2\nvalue = [2, 0]", fillcolor="#e58139"] ;
722 -> 724 ;
725 [label="gini = 0.5\nsamples = 2\nvalue = [1, 1]", fillcolor="#ffffff"] ;
721 -> 725 ;
726 [label="TM_VISIT <= 0.5\ngini = 0.077\nsamples = 25\nvalue = [24, 1]", fillcolor="#e68641"] ;
718 -> 726 ;
727 [label="TOTAL <= 422.0\ngini = 0.219\nsamples = 8\nvalue = [7, 1]", fillcolor="#e99355"] ;
726 -> 727 ;
728 [label="gini = 0.0\nsamples = 2\nvalue = [2, 0]", fillcolor="#e58139"] ;
727 -> 728 ;
729 [label="TOTAL <= 427.0\ngini = 0.278\nsamples = 6\nvalue = [5, 1]", fillcolor="#ea9a61"] ;
727 -> 729 ;
730 [label="gini = 0.375\nsamples = 4\nvalue = [3, 1]", fillcolor="#eeab7b"] ;
729 -> 730 ;
731 [label="gini = 0.0\nsamples = 2\nvalue = [2, 0]", fillcolor="#e58139"] ;
729 -> 731 ;
732 [label="gini = 0.0\nsamples = 17\nvalue = [17, 0]", fillcolor="#e58139"] ;
726 -> 732 ;
733 [label="TOTAL <= 442.5\ngini = 0.336\nsamples = 134629\nvalue = [105851, 28778]", fillcolor="#eca36f"] ;
623 -> 733 ;
734 [label="TOTAL <= 438.5\ngini = 0.464\nsamples = 622\nvalue = [395, 227]", fillcolor="#f4c9ab"] ;
733 -> 734 ;
735 [label="TOTAL <= 431.5\ngini = 0.26\nsamples = 13\nvalue = [11, 2]", fillcolor="#ea985d"] ;
734 -> 735 ;
736 [label="TM_VISIT <= 0.5\ngini = 0.5\nsamples = 2\nvalue = [1, 1]", fillcolor="#ffffff"] ;
735 -> 736 ;
737 [label="gini = 0.0\nsamples = 1\nvalue = [1, 0]", fillcolor="#e58139"] ;
736 -> 737 ;
738 [label="gini = 0.0\nsamples = 1\nvalue = [0, 1]", fillcolor="#399de5"] ;
736 -> 738 ;
739 [label="CFH_VISIT <= 0.5\ngini = 0.165\nsamples = 11\nvalue = [10, 1]", fillcolor="#e88e4d"] ;
735 -> 739 ;
740 [label="gini = 0.0\nsamples = 9\nvalue = [9, 0]", fillcolor="#e58139"] ;
739 -> 740 ;
741 [label="TOTAL <= 433.0\ngini = 0.5\nsamples = 2\nvalue = [1, 1]", fillcolor="#ffffff"] ;
739 -> 741 ;
742 [label="gini = 0.0\nsamples = 1\nvalue = [1, 0]", fillcolor="#e58139"] ;
741 -> 742 ;
743 [label="gini = 0.0\nsamples = 1\nvalue = [0, 1]", fillcolor="#399de5"] ;
741 -> 743 ;
744 [label="TOTAL <= 440.5\ngini = 0.466\nsamples = 609\nvalue = [384, 225]", fillcolor="#f4cbad"] ;
734 -> 744 ;
745 [label="TOTAL <= 439.5\ngini = 0.465\nsamples = 606\nvalue = [383, 223]", fillcolor="#f4caac"] ;
744 -> 745 ;
746 [label="TM_VISIT <= 0.5\ngini = 0.464\nsamples = 589\nvalue = [373, 216]", fillcolor="#f4caac"] ;
745 -> 746 ;
747 [label="CFH_VISIT <= 0.5\ngini = 0.462\nsamples = 295\nvalue = [188, 107]", fillcolor="#f4c9aa"] ;
746 -> 747 ;
748 [label="gini = 0.465\nsamples = 245\nvalue = [155, 90]", fillcolor="#f4caac"] ;
747 -> 748 ;
749 [label="gini = 0.449\nsamples = 50\nvalue = [33, 17]", fillcolor="#f2c29f"] ;
747 -> 749 ;
750 [label="CFH_VISIT <= 0.5\ngini = 0.467\nsamples = 294\nvalue = [185, 109]", fillcolor="#f4cbae"] ;
746 -> 750 ;
751 [label="gini = 0.465\nsamples = 237\nvalue = [150, 87]", fillcolor="#f4caac"] ;
750 -> 751 ;
752 [label="gini = 0.474\nsamples = 57\nvalue = [35, 22]", fillcolor="#f5d0b5"] ;
750 -> 752 ;
753 [label="TM_VISIT <= 0.5\ngini = 0.484\nsamples = 17\nvalue = [10, 7]", fillcolor="#f7d9c4"] ;
745 -> 753 ;
754 [label="CFH_VISIT <= 0.5\ngini = 0.444\nsamples = 3\nvalue = [1, 2]", fillcolor="#9ccef2"] ;
753 -> 754 ;
755 [label="gini = 0.5\nsamples = 2\nvalue = [1, 1]", fillcolor="#ffffff"] ;
754 -> 755 ;
756 [label="gini = 0.0\nsamples = 1\nvalue = [0, 1]", fillcolor="#399de5"] ;
754 -> 756 ;
757 [label="CFH_VISIT <= 0.5\ngini = 0.459\nsamples = 14\nvalue = [9, 5]", fillcolor="#f3c7a7"] ;
753 -> 757 ;
758 [label="gini = 0.486\nsamples = 12\nvalue = [7, 5]", fillcolor="#f8dbc6"] ;
757 -> 758 ;
759 [label="gini = 0.0\nsamples = 2\nvalue = [2, 0]", fillcolor="#e58139"] ;
757 -> 759 ;
760 [label="TOTAL <= 441.5\ngini = 0.444\nsamples = 3\nvalue = [1, 2]", fillcolor="#9ccef2"] ;
744 -> 760 ;
761 [label="gini = 0.0\nsamples = 1\nvalue = [0, 1]", fillcolor="#399de5"] ;
760 -> 761 ;
762 [label="gini = 0.5\nsamples = 2\nvalue = [1, 1]", fillcolor="#ffffff"] ;
760 -> 762 ;
763 [label="TOTAL <= 522.5\ngini = 0.335\nsamples = 134007\nvalue = [105456, 28551]", fillcolor="#eca36f"] ;
733 -> 763 ;
764 [label="CFH_VISIT <= 0.5\ngini = 0.089\nsamples = 683\nvalue = [651, 32]", fillcolor="#e68743"] ;
763 -> 764 ;
765 [label="TOTAL <= 450.5\ngini = 0.101\nsamples = 561\nvalue = [531, 30]", fillcolor="#e68844"] ;
764 -> 765 ;
766 [label="TM_VISIT <= 0.5\ngini = 0.029\nsamples = 69\nvalue = [68, 1]", fillcolor="#e5833c"] ;
765 -> 766 ;
767 [label="TOTAL <= 443.5\ngini = 0.056\nsamples = 35\nvalue = [34, 1]", fillcolor="#e6853f"] ;
766 -> 767 ;
768 [label="gini = 0.069\nsamples = 28\nvalue = [27, 1]", fillcolor="#e68640"] ;
767 -> 768 ;
769 [label="gini = 0.0\nsamples = 7\nvalue = [7, 0]", fillcolor="#e58139"] ;
767 -> 769 ;
770 [label="gini = 0.0\nsamples = 34\nvalue = [34, 0]", fillcolor="#e58139"] ;
766 -> 770 ;
771 [label="TOTAL <= 470.5\ngini = 0.111\nsamples = 492\nvalue = [463, 29]", fillcolor="#e78945"] ;
765 -> 771 ;
772 [label="TOTAL <= 462.5\ngini = 0.166\nsamples = 142\nvalue = [129, 13]", fillcolor="#e88e4d"] ;
771 -> 772 ;
773 [label="TOTAL <= 451.5\ngini = 0.089\nsamples = 43\nvalue = [41, 2]", fillcolor="#e68743"] ;
772 -> 773 ;
774 [label="TM_VISIT <= 0.5\ngini = 0.137\nsamples = 27\nvalue = [25, 2]", fillcolor="#e78b49"] ;
773 -> 774 ;
775 [label="gini = 0.095\nsamples = 20\nvalue = [19, 1]", fillcolor="#e68843"] ;
774 -> 775 ;
776 [label="gini = 0.245\nsamples = 7\nvalue = [6, 1]", fillcolor="#e9965a"] ;
774 -> 776 ;
777 [label="gini = 0.0\nsamples = 16\nvalue = [16, 0]", fillcolor="#e58139"] ;
773 -> 777 ;
778 [label="TM_VISIT <= 0.5\ngini = 0.198\nsamples = 99\nvalue = [88, 11]", fillcolor="#e89152"] ;
772 -> 778 ;
779 [label="TOTAL <= 464.0\ngini = 0.252\nsamples = 54\nvalue = [46, 8]", fillcolor="#ea975b"] ;
778 -> 779 ;
780 [label="gini = 0.213\nsamples = 33\nvalue = [29, 4]", fillcolor="#e99254"] ;
779 -> 780 ;
781 [label="TOTAL <= 465.5\ngini = 0.308\nsamples = 21\nvalue = [17, 4]", fillcolor="#eb9f68"] ;
779 -> 781 ;
782 [label="gini = 0.444\nsamples = 3\nvalue = [2, 1]", fillcolor="#f2c09c"] ;
781 -> 782 ;
783 [label="TOTAL <= 469.0\ngini = 0.278\nsamples = 18\nvalue = [15, 3]", fillcolor="#ea9a61"] ;
781 -> 783 ;
784 [label="gini = 0.0\nsamples = 2\nvalue = [2, 0]", fillcolor="#e58139"] ;
783 -> 784 ;
785 [label="gini = 0.305\nsamples = 16\nvalue = [13, 3]", fillcolor="#eb9e67"] ;
783 -> 785 ;
786 [label="TOTAL <= 463.5\ngini = 0.124\nsamples = 45\nvalue = [42, 3]", fillcolor="#e78a47"] ;
778 -> 786 ;
787 [label="gini = 0.147\nsamples = 25\nvalue = [23, 2]", fillcolor="#e78c4a"] ;
786 -> 787 ;
788 [label="TOTAL <= 469.5\ngini = 0.095\nsamples = 20\nvalue = [19, 1]", fillcolor="#e68843"] ;
786 -> 788 ;
789 [label="gini = 0.0\nsamples = 3\nvalue = [3, 0]", fillcolor="#e58139"] ;
788 -> 789 ;
790 [label="gini = 0.111\nsamples = 17\nvalue = [16, 1]", fillcolor="#e78945"] ;
788 -> 790 ;
791 [label="TOTAL <= 480.5\ngini = 0.087\nsamples = 350\nvalue = [334, 16]", fillcolor="#e68742"] ;
771 -> 791 ;
792 [label="gini = 0.0\nsamples = 64\nvalue = [64, 0]", fillcolor="#e58139"] ;
791 -> 792 ;
793 [label="TOTAL <= 481.5\ngini = 0.106\nsamples = 286\nvalue = [270, 16]", fillcolor="#e78845"] ;
791 -> 793 ;
794 [label="gini = 0.0\nsamples = 1\nvalue = [0, 1]", fillcolor="#399de5"] ;
793 -> 794 ;
795 [label="TOTAL <= 505.5\ngini = 0.1\nsamples = 285\nvalue = [270, 15]", fillcolor="#e68844"] ;
793 -> 795 ;
796 [label="TOTAL <= 492.5\ngini = 0.088\nsamples = 218\nvalue = [208, 10]", fillcolor="#e68743"] ;
795 -> 796 ;
797 [label="TM_VISIT <= 0.5\ngini = 0.063\nsamples = 61\nvalue = [59, 2]", fillcolor="#e68540"] ;
796 -> 797 ;
798 [label="TOTAL <= 486.5\ngini = 0.124\nsamples = 30\nvalue = [28, 2]", fillcolor="#e78a47"] ;
797 -> 798 ;
799 [label="TOTAL <= 485.5\ngini = 0.142\nsamples = 26\nvalue = [24, 2]", fillcolor="#e78c49"] ;
798 -> 799 ;
800 [label="gini = 0.0\nsamples = 1\nvalue = [1, 0]", fillcolor="#e58139"] ;
799 -> 800 ;
801 [label="gini = 0.147\nsamples = 25\nvalue = [23, 2]", fillcolor="#e78c4a"] ;
799 -> 801 ;
802 [label="gini = 0.0\nsamples = 4\nvalue = [4, 0]", fillcolor="#e58139"] ;
798 -> 802 ;
803 [label="gini = 0.0\nsamples = 31\nvalue = [31, 0]", fillcolor="#e58139"] ;
797 -> 803 ;
804 [label="TOTAL <= 493.5\ngini = 0.097\nsamples = 157\nvalue = [149, 8]", fillcolor="#e68844"] ;
796 -> 804 ;
805 [label="TM_VISIT <= 0.5\ngini = 0.137\nsamples = 54\nvalue = [50, 4]", fillcolor="#e78b49"] ;
804 -> 805 ;
806 [label="gini = 0.114\nsamples = 33\nvalue = [31, 2]", fillcolor="#e78946"] ;
805 -> 806 ;
807 [label="gini = 0.172\nsamples = 21\nvalue = [19, 2]", fillcolor="#e88e4e"] ;
805 -> 807 ;
808 [label="TM_VISIT <= 0.5\ngini = 0.075\nsamples = 103\nvalue = [99, 4]", fillcolor="#e68641"] ;
804 -> 808 ;
809 [label="TOTAL <= 503.0\ngini = 0.043\nsamples = 46\nvalue = [45, 1]", fillcolor="#e6843d"] ;
808 -> 809 ;
810 [label="gini = 0.0\nsamples = 19\nvalue = [19, 0]", fillcolor="#e58139"] ;
809 -> 810 ;
811 [label="TOTAL <= 504.5\ngini = 0.071\nsamples = 27\nvalue = [26, 1]", fillcolor="#e68641"] ;
809 -> 811 ;
812 [label="gini = 0.074\nsamples = 26\nvalue = [25, 1]", fillcolor="#e68641"] ;
811 -> 812 ;
813 [label="gini = 0.0\nsamples = 1\nvalue = [1, 0]", fillcolor="#e58139"] ;
811 -> 813 ;
814 [label="TOTAL <= 498.5\ngini = 0.1\nsamples = 57\nvalue = [54, 3]", fillcolor="#e68844"] ;
808 -> 814 ;
815 [label="gini = 0.0\nsamples = 8\nvalue = [8, 0]", fillcolor="#e58139"] ;
814 -> 815 ;
816 [label="TOTAL <= 501.5\ngini = 0.115\nsamples = 49\nvalue = [46, 3]", fillcolor="#e78946"] ;
814 -> 816 ;
817 [label="gini = 0.117\nsamples = 16\nvalue = [15, 1]", fillcolor="#e78946"] ;
816 -> 817 ;
818 [label="gini = 0.114\nsamples = 33\nvalue = [31, 2]", fillcolor="#e78946"] ;
816 -> 818 ;
819 [label="TOTAL <= 513.5\ngini = 0.138\nsamples = 67\nvalue = [62, 5]", fillcolor="#e78b49"] ;
795 -> 819 ;
820 [label="TOTAL <= 506.5\ngini = 0.16\nsamples = 57\nvalue = [52, 5]", fillcolor="#e88d4c"] ;
819 -> 820 ;
821 [label="TM_VISIT <= 0.5\ngini = 0.278\nsamples = 6\nvalue = [5, 1]", fillcolor="#ea9a61"] ;
820 -> 821 ;
822 [label="gini = 0.375\nsamples = 4\nvalue = [3, 1]", fillcolor="#eeab7b"] ;
821 -> 822 ;
823 [label="gini = 0.0\nsamples = 2\nvalue = [2, 0]", fillcolor="#e58139"] ;
821 -> 823 ;
824 [label="TM_VISIT <= 0.5\ngini = 0.145\nsamples = 51\nvalue = [47, 4]", fillcolor="#e78c4a"] ;
820 -> 824 ;
825 [label="TOTAL <= 512.5\ngini = 0.074\nsamples = 26\nvalue = [25, 1]", fillcolor="#e68641"] ;
824 -> 825 ;
826 [label="gini = 0.0\nsamples = 5\nvalue = [5, 0]", fillcolor="#e58139"] ;
825 -> 826 ;
827 [label="gini = 0.091\nsamples = 21\nvalue = [20, 1]", fillcolor="#e68743"] ;
825 -> 827 ;
828 [label="TOTAL <= 512.0\ngini = 0.211\nsamples = 25\nvalue = [22, 3]", fillcolor="#e99254"] ;
824 -> 828 ;
829 [label="gini = 0.0\nsamples = 2\nvalue = [2, 0]", fillcolor="#e58139"] ;
828 -> 829 ;
830 [label="gini = 0.227\nsamples = 23\nvalue = [20, 3]", fillcolor="#e99457"] ;
828 -> 830 ;
831 [label="gini = 0.0\nsamples = 10\nvalue = [10, 0]", fillcolor="#e58139"] ;
819 -> 831 ;
832 [label="TOTAL <= 473.5\ngini = 0.032\nsamples = 122\nvalue = [120, 2]", fillcolor="#e5833c"] ;
764 -> 832 ;
833 [label="gini = 0.0\nsamples = 47\nvalue = [47, 0]", fillcolor="#e58139"] ;
832 -> 833 ;
834 [label="TOTAL <= 489.5\ngini = 0.052\nsamples = 75\nvalue = [73, 2]", fillcolor="#e6843e"] ;
832 -> 834 ;
835 [label="TOTAL <= 485.0\ngini = 0.133\nsamples = 28\nvalue = [26, 2]", fillcolor="#e78b48"] ;
834 -> 835 ;
836 [label="TM_VISIT <= 0.5\ngini = 0.091\nsamples = 21\nvalue = [20, 1]", fillcolor="#e68743"] ;
835 -> 836 ;
837 [label="gini = 0.0\nsamples = 8\nvalue = [8, 0]", fillcolor="#e58139"] ;
836 -> 837 ;
838 [label="TOTAL <= 476.5\ngini = 0.142\nsamples = 13\nvalue = [12, 1]", fillcolor="#e78c49"] ;
836 -> 838 ;
839 [label="gini = 0.165\nsamples = 11\nvalue = [10, 1]", fillcolor="#e88e4d"] ;
838 -> 839 ;
840 [label="gini = 0.0\nsamples = 2\nvalue = [2, 0]", fillcolor="#e58139"] ;
838 -> 840 ;
841 [label="TM_VISIT <= 0.5\ngini = 0.245\nsamples = 7\nvalue = [6, 1]", fillcolor="#e9965a"] ;
835 -> 841 ;
842 [label="gini = 0.375\nsamples = 4\nvalue = [3, 1]", fillcolor="#eeab7b"] ;
841 -> 842 ;
843 [label="gini = 0.0\nsamples = 3\nvalue = [3, 0]", fillcolor="#e58139"] ;
841 -> 843 ;
844 [label="gini = 0.0\nsamples = 47\nvalue = [47, 0]", fillcolor="#e58139"] ;
834 -> 844 ;
845 [label="TOTAL <= 530.5\ngini = 0.336\nsamples = 133324\nvalue = [104805, 28519]", fillcolor="#eca36f"] ;
763 -> 845 ;
846 [label="TOTAL <= 529.5\ngini = 0.5\nsamples = 407\nvalue = [198, 209]", fillcolor="#f5fafe"] ;
845 -> 846 ;
847 [label="TOTAL <= 528.5\ngini = 0.5\nsamples = 406\nvalue = [198, 208]", fillcolor="#f5fafe"] ;
846 -> 847 ;
848 [label="TOTAL <= 523.5\ngini = 0.5\nsamples = 405\nvalue = [197, 208]", fillcolor="#f5fafe"] ;
847 -> 848 ;
849 [label="TM_VISIT <= 0.5\ngini = 0.5\nsamples = 387\nvalue = [190, 197]", fillcolor="#f8fcfe"] ;
848 -> 849 ;
850 [label="CFH_VISIT <= 0.5\ngini = 0.498\nsamples = 187\nvalue = [87, 100]", fillcolor="#e5f2fc"] ;
849 -> 850 ;
851 [label="gini = 0.493\nsamples = 170\nvalue = [75, 95]", fillcolor="#d5eafa"] ;
850 -> 851 ;
852 [label="gini = 0.415\nsamples = 17\nvalue = [12, 5]", fillcolor="#f0b58b"] ;
850 -> 852 ;
853 [label="CFH_VISIT <= 0.5\ngini = 0.5\nsamples = 200\nvalue = [103, 97]", fillcolor="#fdf8f3"] ;
849 -> 853 ;
854 [label="gini = 0.499\nsamples = 151\nvalue = [79, 72]", fillcolor="#fdf4ed"] ;
853 -> 854 ;
855 [label="gini = 0.5\nsamples = 49\nvalue = [24, 25]", fillcolor="#f7fbfe"] ;
853 -> 855 ;
856 [label="TOTAL <= 527.5\ngini = 0.475\nsamples = 18\nvalue = [7, 11]", fillcolor="#b7dbf6"] ;
848 -> 856 ;
857 [label="gini = 0.0\nsamples = 4\nvalue = [0, 4]", fillcolor="#399de5"] ;
856 -> 857 ;
858 [label="TM_VISIT <= 0.5\ngini = 0.5\nsamples = 14\nvalue = [7, 7]", fillcolor="#ffffff"] ;
856 -> 858 ;
859 [label="CFH_VISIT <= 0.5\ngini = 0.278\nsamples = 6\nvalue = [5, 1]", fillcolor="#ea9a61"] ;
858 -> 859 ;
860 [label="gini = 0.32\nsamples = 5\nvalue = [4, 1]", fillcolor="#eca06a"] ;
859 -> 860 ;
861 [label="gini = 0.0\nsamples = 1\nvalue = [1, 0]", fillcolor="#e58139"] ;
859 -> 861 ;
862 [label="CFH_VISIT <= 0.5\ngini = 0.375\nsamples = 8\nvalue = [2, 6]", fillcolor="#7bbeee"] ;
858 -> 862 ;
863 [label="gini = 0.408\nsamples = 7\nvalue = [2, 5]", fillcolor="#88c4ef"] ;
862 -> 863 ;
864 [label="gini = 0.0\nsamples = 1\nvalue = [0, 1]", fillcolor="#399de5"] ;
862 -> 864 ;
865 [label="gini = 0.0\nsamples = 1\nvalue = [1, 0]", fillcolor="#e58139"] ;
847 -> 865 ;
866 [label="gini = 0.0\nsamples = 1\nvalue = [0, 1]", fillcolor="#399de5"] ;
846 -> 866 ;
867 [label="TOTAL <= 630.5\ngini = 0.335\nsamples = 132917\nvalue = [104607, 28310]", fillcolor="#eca36f"] ;
845 -> 867 ;
868 [label="TOTAL <= 571.5\ngini = 0.133\nsamples = 727\nvalue = [675, 52]", fillcolor="#e78b48"] ;
867 -> 868 ;
869 [label="CFH_VISIT <= 0.5\ngini = 0.173\nsamples = 356\nvalue = [322, 34]", fillcolor="#e88e4e"] ;
868 -> 869 ;
870 [label="TOTAL <= 567.5\ngini = 0.15\nsamples = 293\nvalue = [269, 24]", fillcolor="#e78c4b"] ;
869 -> 870 ;
871 [label="TOTAL <= 564.0\ngini = 0.134\nsamples = 249\nvalue = [231, 18]", fillcolor="#e78b48"] ;
870 -> 871 ;
872 [label="TOTAL <= 552.5\ngini = 0.139\nsamples = 239\nvalue = [221, 18]", fillcolor="#e78b49"] ;
871 -> 872 ;
873 [label="TM_VISIT <= 0.5\ngini = 0.116\nsamples = 130\nvalue = [122, 8]", fillcolor="#e78946"] ;
872 -> 873 ;
874 [label="TOTAL <= 543.5\ngini = 0.149\nsamples = 74\nvalue = [68, 6]", fillcolor="#e78c4a"] ;
873 -> 874 ;
875 [label="TOTAL <= 542.0\ngini = 0.168\nsamples = 65\nvalue = [59, 6]", fillcolor="#e88e4d"] ;
874 -> 875 ;
876 [label="TOTAL <= 531.5\ngini = 0.149\nsamples = 37\nvalue = [34, 3]", fillcolor="#e78c4a"] ;
875 -> 876 ;
877 [label="gini = 0.185\nsamples = 29\nvalue = [26, 3]", fillcolor="#e89050"] ;
876 -> 877 ;
878 [label="gini = 0.0\nsamples = 8\nvalue = [8, 0]", fillcolor="#e58139"] ;
876 -> 878 ;
879 [label="gini = 0.191\nsamples = 28\nvalue = [25, 3]", fillcolor="#e89051"] ;
875 -> 879 ;
880 [label="gini = 0.0\nsamples = 9\nvalue = [9, 0]", fillcolor="#e58139"] ;
874 -> 880 ;
881 [label="TOTAL <= 534.5\ngini = 0.069\nsamples = 56\nvalue = [54, 2]", fillcolor="#e68640"] ;
873 -> 881 ;
882 [label="gini = 0.0\nsamples = 28\nvalue = [28, 0]", fillcolor="#e58139"] ;
881 -> 882 ;
883 [label="TOTAL <= 537.0\ngini = 0.133\nsamples = 28\nvalue = [26, 2]", fillcolor="#e78b48"] ;
881 -> 883 ;
884 [label="TOTAL <= 535.5\ngini = 0.444\nsamples = 6\nvalue = [4, 2]", fillcolor="#f2c09c"] ;
883 -> 884 ;
885 [label="gini = 0.375\nsamples = 4\nvalue = [3, 1]", fillcolor="#eeab7b"] ;
884 -> 885 ;
886 [label="gini = 0.5\nsamples = 2\nvalue = [1, 1]", fillcolor="#ffffff"] ;
884 -> 886 ;
887 [label="gini = 0.0\nsamples = 22\nvalue = [22, 0]", fillcolor="#e58139"] ;
883 -> 887 ;
888 [label="TM_VISIT <= 0.5\ngini = 0.167\nsamples = 109\nvalue = [99, 10]", fillcolor="#e88e4d"] ;
872 -> 888 ;
889 [label="TOTAL <= 561.0\ngini = 0.101\nsamples = 56\nvalue = [53, 3]", fillcolor="#e68844"] ;
888 -> 889 ;
890 [label="gini = 0.0\nsamples = 35\nvalue = [35, 0]", fillcolor="#e58139"] ;
889 -> 890 ;
891 [label="gini = 0.245\nsamples = 21\nvalue = [18, 3]", fillcolor="#e9965a"] ;
889 -> 891 ;
892 [label="TOTAL <= 553.5\ngini = 0.229\nsamples = 53\nvalue = [46, 7]", fillcolor="#e99457"] ;
888 -> 892 ;
893 [label="gini = 0.337\nsamples = 28\nvalue = [22, 6]", fillcolor="#eca36f"] ;
892 -> 893 ;
894 [label="TOTAL <= 562.5\ngini = 0.077\nsamples = 25\nvalue = [24, 1]", fillcolor="#e68641"] ;
892 -> 894 ;
895 [label="gini = 0.0\nsamples = 5\nvalue = [5, 0]", fillcolor="#e58139"] ;
894 -> 895 ;
896 [label="gini = 0.095\nsamples = 20\nvalue = [19, 1]", fillcolor="#e68843"] ;
894 -> 896 ;
897 [label="gini = 0.0\nsamples = 10\nvalue = [10, 0]", fillcolor="#e58139"] ;
871 -> 897 ;
898 [label="TOTAL <= 568.5\ngini = 0.236\nsamples = 44\nvalue = [38, 6]", fillcolor="#e99558"] ;
870 -> 898 ;
899 [label="gini = 0.0\nsamples = 1\nvalue = [0, 1]", fillcolor="#399de5"] ;
898 -> 899 ;
900 [label="TM_VISIT <= 0.5\ngini = 0.206\nsamples = 43\nvalue = [38, 5]", fillcolor="#e89253"] ;
898 -> 900 ;
901 [label="gini = 0.33\nsamples = 24\nvalue = [19, 5]", fillcolor="#eca26d"] ;
900 -> 901 ;
902 [label="gini = 0.0\nsamples = 19\nvalue = [19, 0]", fillcolor="#e58139"] ;
900 -> 902 ;
903 [label="TOTAL <= 561.5\ngini = 0.267\nsamples = 63\nvalue = [53, 10]", fillcolor="#ea995e"] ;
869 -> 903 ;
904 [label="TOTAL <= 544.0\ngini = 0.227\nsamples = 46\nvalue = [40, 6]", fillcolor="#e99457"] ;
903 -> 904 ;
905 [label="TOTAL <= 533.0\ngini = 0.311\nsamples = 26\nvalue = [21, 5]", fillcolor="#eb9f68"] ;
904 -> 905 ;
906 [label="TM_VISIT <= 0.5\ngini = 0.142\nsamples = 13\nvalue = [12, 1]", fillcolor="#e78c49"] ;
905 -> 906 ;
907 [label="gini = 0.0\nsamples = 3\nvalue = [3, 0]", fillcolor="#e58139"] ;
906 -> 907 ;
908 [label="gini = 0.18\nsamples = 10\nvalue = [9, 1]", fillcolor="#e88f4f"] ;
906 -> 908 ;
909 [label="TOTAL <= 535.5\ngini = 0.426\nsamples = 13\nvalue = [9, 4]", fillcolor="#f1b991"] ;
905 -> 909 ;
910 [label="gini = 0.0\nsamples = 1\nvalue = [0, 1]", fillcolor="#399de5"] ;
909 -> 910 ;
911 [label="TOTAL <= 541.5\ngini = 0.375\nsamples = 12\nvalue = [9, 3]", fillcolor="#eeab7b"] ;
909 -> 911 ;
912 [label="gini = 0.0\nsamples = 2\nvalue = [2, 0]", fillcolor="#e58139"] ;
911 -> 912 ;
913 [label="TM_VISIT <= 0.5\ngini = 0.42\nsamples = 10\nvalue = [7, 3]", fillcolor="#f0b78e"] ;
911 -> 913 ;
914 [label="gini = 0.375\nsamples = 4\nvalue = [3, 1]", fillcolor="#eeab7b"] ;
913 -> 914 ;
915 [label="gini = 0.444\nsamples = 6\nvalue = [4, 2]", fillcolor="#f2c09c"] ;
913 -> 915 ;
916 [label="TM_VISIT <= 0.5\ngini = 0.095\nsamples = 20\nvalue = [19, 1]", fillcolor="#e68843"] ;
904 -> 916 ;
917 [label="gini = 0.0\nsamples = 6\nvalue = [6, 0]", fillcolor="#e58139"] ;
916 -> 917 ;
918 [label="TOTAL <= 549.5\ngini = 0.133\nsamples = 14\nvalue = [13, 1]", fillcolor="#e78b48"] ;
916 -> 918 ;
919 [label="gini = 0.0\nsamples = 2\nvalue = [2, 0]", fillcolor="#e58139"] ;
918 -> 919 ;
920 [label="TOTAL <= 554.0\ngini = 0.153\nsamples = 12\nvalue = [11, 1]", fillcolor="#e78c4b"] ;
918 -> 920 ;
921 [label="gini = 0.18\nsamples = 10\nvalue = [9, 1]", fillcolor="#e88f4f"] ;
920 -> 921 ;
922 [label="gini = 0.0\nsamples = 2\nvalue = [2, 0]", fillcolor="#e58139"] ;
920 -> 922 ;
923 [label="TOTAL <= 566.0\ngini = 0.36\nsamples = 17\nvalue = [13, 4]", fillcolor="#eda876"] ;
903 -> 923 ;
924 [label="TOTAL <= 563.5\ngini = 0.444\nsamples = 9\nvalue = [6, 3]", fillcolor="#f2c09c"] ;
923 -> 924 ;
925 [label="TM_VISIT <= 0.5\ngini = 0.375\nsamples = 8\nvalue = [6, 2]", fillcolor="#eeab7b"] ;
924 -> 925 ;
926 [label="gini = 0.444\nsamples = 3\nvalue = [2, 1]", fillcolor="#f2c09c"] ;
925 -> 926 ;
927 [label="gini = 0.32\nsamples = 5\nvalue = [4, 1]", fillcolor="#eca06a"] ;
925 -> 927 ;
928 [label="gini = 0.0\nsamples = 1\nvalue = [0, 1]", fillcolor="#399de5"] ;
924 -> 928 ;
929 [label="TM_VISIT <= 0.5\ngini = 0.219\nsamples = 8\nvalue = [7, 1]", fillcolor="#e99355"] ;
923 -> 929 ;
930 [label="gini = 0.0\nsamples = 2\nvalue = [2, 0]", fillcolor="#e58139"] ;
929 -> 930 ;
931 [label="gini = 0.278\nsamples = 6\nvalue = [5, 1]", fillcolor="#ea9a61"] ;
929 -> 931 ;
932 [label="TOTAL <= 586.5\ngini = 0.092\nsamples = 371\nvalue = [353, 18]", fillcolor="#e68743"] ;
868 -> 932 ;
933 [label="gini = 0.0\nsamples = 69\nvalue = [69, 0]", fillcolor="#e58139"] ;
932 -> 933 ;
934 [label="TOTAL <= 587.5\ngini = 0.112\nsamples = 302\nvalue = [284, 18]", fillcolor="#e78946"] ;
932 -> 934 ;
935 [label="TM_VISIT <= 0.5\ngini = 0.5\nsamples = 4\nvalue = [2, 2]", fillcolor="#ffffff"] ;
934 -> 935 ;
936 [label="gini = 0.0\nsamples = 2\nvalue = [0, 2]", fillcolor="#399de5"] ;
935 -> 936 ;
937 [label="gini = 0.0\nsamples = 2\nvalue = [2, 0]", fillcolor="#e58139"] ;
935 -> 937 ;
938 [label="TOTAL <= 603.5\ngini = 0.102\nsamples = 298\nvalue = [282, 16]", fillcolor="#e68844"] ;
934 -> 938 ;
939 [label="CFH_VISIT <= 0.5\ngini = 0.042\nsamples = 93\nvalue = [91, 2]", fillcolor="#e6843d"] ;
938 -> 939 ;
940 [label="TM_VISIT <= 0.5\ngini = 0.025\nsamples = 78\nvalue = [77, 1]", fillcolor="#e5833c"] ;
939 -> 940 ;
941 [label="gini = 0.0\nsamples = 39\nvalue = [39, 0]", fillcolor="#e58139"] ;
940 -> 941 ;
942 [label="TOTAL <= 594.5\ngini = 0.05\nsamples = 39\nvalue = [38, 1]", fillcolor="#e6843e"] ;
940 -> 942 ;
943 [label="TOTAL <= 593.0\ngini = 0.067\nsamples = 29\nvalue = [28, 1]", fillcolor="#e68640"] ;
942 -> 943 ;
944 [label="gini = 0.0\nsamples = 3\nvalue = [3, 0]", fillcolor="#e58139"] ;
943 -> 944 ;
945 [label="gini = 0.074\nsamples = 26\nvalue = [25, 1]", fillcolor="#e68641"] ;
943 -> 945 ;
946 [label="gini = 0.0\nsamples = 10\nvalue = [10, 0]", fillcolor="#e58139"] ;
942 -> 946 ;
947 [label="TOTAL <= 592.5\ngini = 0.124\nsamples = 15\nvalue = [14, 1]", fillcolor="#e78a47"] ;
939 -> 947 ;
948 [label="gini = 0.0\nsamples = 4\nvalue = [4, 0]", fillcolor="#e58139"] ;
947 -> 948 ;
949 [label="TM_VISIT <= 0.5\ngini = 0.165\nsamples = 11\nvalue = [10, 1]", fillcolor="#e88e4d"] ;
947 -> 949 ;
950 [label="gini = 0.0\nsamples = 3\nvalue = [3, 0]", fillcolor="#e58139"] ;
949 -> 950 ;
951 [label="gini = 0.219\nsamples = 8\nvalue = [7, 1]", fillcolor="#e99355"] ;
949 -> 951 ;
952 [label="TOTAL <= 614.5\ngini = 0.127\nsamples = 205\nvalue = [191, 14]", fillcolor="#e78a48"] ;
938 -> 952 ;
953 [label="TM_VISIT <= 0.5\ngini = 0.185\nsamples = 116\nvalue = [104, 12]", fillcolor="#e89050"] ;
952 -> 953 ;
954 [label="TOTAL <= 608.5\ngini = 0.255\nsamples = 60\nvalue = [51, 9]", fillcolor="#ea975c"] ;
953 -> 954 ;
955 [label="TOTAL <= 607.0\ngini = 0.287\nsamples = 23\nvalue = [19, 4]", fillcolor="#ea9c63"] ;
954 -> 955 ;
956 [label="TOTAL <= 605.0\ngini = 0.236\nsamples = 22\nvalue = [19, 3]", fillcolor="#e99558"] ;
955 -> 956 ;
957 [label="CFH_VISIT <= 0.5\ngini = 0.255\nsamples = 20\nvalue = [17, 3]", fillcolor="#ea975c"] ;
956 -> 957 ;
958 [label="gini = 0.278\nsamples = 18\nvalue = [15, 3]", fillcolor="#ea9a61"] ;
957 -> 958 ;
959 [label="gini = 0.0\nsamples = 2\nvalue = [2, 0]", fillcolor="#e58139"] ;
957 -> 959 ;
960 [label="gini = 0.0\nsamples = 2\nvalue = [2, 0]", fillcolor="#e58139"] ;
956 -> 960 ;
961 [label="gini = 0.0\nsamples = 1\nvalue = [0, 1]", fillcolor="#399de5"] ;
955 -> 961 ;
962 [label="CFH_VISIT <= 0.5\ngini = 0.234\nsamples = 37\nvalue = [32, 5]", fillcolor="#e99558"] ;
954 -> 962 ;
963 [label="TOTAL <= 613.0\ngini = 0.271\nsamples = 31\nvalue = [26, 5]", fillcolor="#ea995f"] ;
962 -> 963 ;
